{"input_shape": [16, 16, 1], "normalizacion": "pixel / 255.0", "clases": [0, 1, 2, 3, 4, 5, 6, 7, 8, 9], "layers": [{"tipo": "Dense", "activation": "relu", "weights": [[0.017948031425476074, 0.09046545624732971, -0.024301230907440186, 0.07541006803512573, -0.04265984892845154, -0.10441142320632935, -0.11930042505264282, 0.03294512629508972, 0.06363531947135925, 0.08600971102714539, 0.09340670704841614, 0.0020346641540527344, 0.013008862733840942, -0.095611572265625, 0.07035455107688904, 0.07778483629226685, 0.08924391865730286, -0.03537607192993164, -0.08125784993171692, -0.0917544960975647, 0.110857754945755, -0.08810514211654663, 0.07756051421165466, -0.0985855758190155, -0.04126247763633728, -0.04372510313987732, 0.021154314279556274, -0.06856560707092285, 0.0029861629009246826, 0.003902733325958252, -0.05888068675994873, 0.122444748878479, 0.10516607761383057, 0.017093569040298462, 0.026331007480621338, 0.11720684170722961, -0.0566709041595459, 0.09536135196685791, 0.0499262809753418, -0.013198226690292358, 0.06081598997116089, -0.09656861424446106, 0.01379626989364624, -0.09384086728096008, 0.1207275390625, 0.03204137086868286, 0.0555444061756134, -0.03593131899833679, 0.08767789602279663, -0.04473116993904114, -0.04839515686035156, -0.11001205444335938, -0.05302673578262329, 0.035532206296920776, -0.03780791163444519, -0.0880117416381836, -0.09633731842041016, -0.11109954118728638, 0.08762738108634949, -0.10670378804206848, -0.014061897993087769, -0.08552086353302002, -0.07943752408027649, -0.019917041063308716, 0.07566851377487183, 0.011966049671173096, 0.02803492546081543, 0.08611157536506653, -0.12360584735870361, -0.11207517981529236, -0.011420458555221558, 0.00032511353492736816, 0.10561895370483398, -0.04106932878494263, 0.12472954392433167, 0.08626046776771545, -0.03864121437072754, 0.11422443389892578, 0.06387689709663391, -0.062098562717437744, -0.08071774244308472, 0.0735059380531311, -0.07715290784835815, 0.10777139663696289, -0.07361903786659241, 0.08863887190818787, -0.083767831325531, 0.007701516151428223, -0.001153022050857544, 0.12202343344688416, -0.04215404391288757, 0.10190710425376892, -0.007541626691818237, -0.10566896200180054, -0.08086535334587097, 0.023178964853286743, -0.05250304937362671, -0.023173987865447998, -0.09066542983055115, -0.005419522523880005, -0.056558042764663696, -0.06742429733276367, -0.10257476568222046, 0.042117536067962646, 0.03051537275314331, 0.04769378900527954, -0.08703416585922241, -0.05979013442993164, -0.08322307467460632, -0.0905047059059143, -0.11231672763824463, 0.10965320467948914, -0.07313892245292664, 0.06069132685661316, 0.00377461314201355, -0.07529997825622559, 0.09272503852844238, -0.08119919896125793, 0.0260162353515625, -0.030230462551116943, 0.008515149354934692, -0.01732701063156128, 0.0026299357414245605, -0.12176743149757385, -0.10264798998832703, -0.021161913871765137, -0.10997679829597473, 0.0855596661567688], [0.061562925577163696, 0.04609954357147217, 0.11339625716209412, -0.006500422954559326, 0.1089337170124054, 0.009203165769577026, -0.004472225904464722, 0.007132798433303833, -0.06892552971839905, -0.11254966259002686, -0.037492185831069946, -0.11744660139083862, -0.08899864554405212, -0.11485901474952698, -0.09359568357467651, 0.12175789475440979, -0.008691906929016113, -0.05888628959655762, 0.09408354759216309, 0.04756706953048706, -0.01683637499809265, 0.01682901382446289, -0.07426926493644714, -0.0381065309047699, -0.09001630544662476, 0.06051376461982727, 0.011269181966781616, 0.09216898679733276, -0.0038372576236724854, -0.028176993131637573, -0.07332497835159302, 0.12432733178138733, -0.1146886944770813, -0.054528504610061646, -0.058977216482162476, 0.05889877676963806, -0.08317098021507263, 0.007847607135772705, -0.0153769850730896, 0.0027764737606048584, 0.011706411838531494, -0.07023921608924866, 0.07795494794845581, 0.05756214261054993, -0.0492684543132782, -0.04429832100868225, -0.10628145933151245, 0.09702134132385254, -0.05263838171958923, 0.033848702907562256, 0.021591871976852417, 0.08660009503364563, -0.05839857459068298, -0.0010864734649658203, -0.09823617339134216, 0.11945289373397827, 0.06618845462799072, -0.06257960200309753, -0.09171733260154724, 0.014072835445404053, 0.07988190650939941, 0.10236480832099915, 0.022038131952285767, 0.030296742916107178, 0.02854207158088684, -0.11404851078987122, -0.10512354969978333, 0.07902637124061584, 0.06104585528373718, -0.11151736974716187, 0.02674451470375061, -0.0019544661045074463, -0.09539037942886353, -0.015027910470962524, -0.004506915807723999, -0.012917786836624146, -0.0344560444355011, 0.09527987241744995, 0.1241898238658905, -0.07951110601425171, 0.06720045208930969, 0.08050814270973206, 0.12084290385246277, 0.03601917624473572, -0.07143312692642212, 0.04965472221374512, -0.004589974880218506, -0.015921711921691895, -0.08307072520256042, -0.12219822406768799, 0.11318445205688477, -0.03956180810928345, -0.11470016837120056, 0.05006951093673706, 0.037907421588897705, 0.12352177500724792, -0.08433219790458679, 0.05829378962516785, -0.1114187240600586, -0.02650773525238037, 0.012100458145141602, 0.06738129258155823, -0.08530277013778687, -0.05417945981025696, -0.11597660183906555, 0.11956310272216797, 0.0652461051940918, 0.06185108423233032, -0.09059250354766846, 0.09752237796783447, 0.04235655069351196, -0.0032057762145996094, 0.0017294585704803467, 0.005250662565231323, -0.06435763835906982, 0.009288400411605835, -0.11265537142753601, -0.11310023069381714, -0.09365198016166687, 0.03871387243270874, -0.11818018555641174, -0.015169531106948853, -0.06053856015205383, -0.08551135659217834, 0.0824151337146759, 0.01234346628189087, 0.07582005858421326, -0.06891414523124695], [-0.047664668411016464, -0.009339536540210247, 0.1372985988855362, -0.0912754237651825, -0.09851586073637009, 0.08381349593400955, -0.07916414737701416, -0.010110951028764248, 0.004598955158144236, -0.05175916105508804, -0.10415790975093842, 0.08678578585386276, 0.03307567164301872, 0.006592100486159325, 0.019647270441055298, 0.10214602947235107, -0.1026286631822586, 0.007676712702959776, 0.10326525568962097, 0.04640144482254982, 0.02219533920288086, -0.06229907274246216, 0.09648290276527405, 0.08061862736940384, -0.12389447540044785, 0.10422433167695999, 0.03139028325676918, 0.008373161777853966, 0.01435176096856594, -0.08197438716888428, -0.056115299463272095, 0.1241263747215271, 0.018955787643790245, -0.029401008039712906, 0.0422285720705986, 0.0075615691021084785, -0.1243097186088562, -0.009059444069862366, 0.06170814484357834, -0.08664992451667786, -0.05738666281104088, 0.034422505646944046, 0.07930648326873779, 0.09955944865942001, -0.1079937219619751, -0.01818801648914814, 0.05997881293296814, 0.0321650505065918, -0.08491604775190353, 0.10739775002002716, -0.036054451018571854, -0.028197884559631348, 0.07066734880208969, 0.1198054850101471, 0.11609535664319992, 0.1130019947886467, -0.09885981678962708, 0.026977794244885445, 0.1049184501171112, -0.03142032027244568, 0.1081739142537117, -0.04113203287124634, -0.005220568738877773, -0.04188264161348343, 0.01597757637500763, 0.028378626331686974, -0.03971600532531738, 0.0951194167137146, -0.07398165762424469, 0.00794380996376276, 0.02277437597513199, 0.12189382314682007, 0.047342706471681595, -0.027570927515625954, 0.06705056875944138, 0.026139160618185997, 0.11394166946411133, 0.08829347044229507, -0.02244269847869873, -0.026889022439718246, -0.10401876270771027, -0.060377851128578186, 0.09208047389984131, -0.06041938066482544, -0.02851957269012928, -0.07507579028606415, -0.04574880003929138, 0.11133255809545517, 0.06251010298728943, 0.06488287448883057, -0.008384853601455688, 0.012312044389545918, -0.12187296897172928, -0.008100200444459915, 0.08641496300697327, 0.014336347579956055, -0.008374795317649841, -0.012521296739578247, 0.12133046984672546, 0.1052493304014206, -0.07720872759819031, 0.09067368507385254, 0.02013164758682251, -0.12567180395126343, -0.021966278553009033, 0.0649939477443695, -0.07515454292297363, 0.08411959558725357, -0.12314662337303162, 0.035647034645080566, 0.004699259996414185, 0.0825171172618866, 0.08935797214508057, 0.0818207859992981, 0.01799267902970314, -0.040651705116033554, 0.1256154328584671, 0.07442457228899002, 0.0500352680683136, -0.09207350015640259, 0.08259287476539612, 0.09909667074680328, 0.01657259464263916, 0.04923255369067192, -0.12019068002700806, -0.10694022476673126, -0.02021106891334057, 0.01528581976890564], [0.06034916639328003, 0.08597113937139511, 0.19574019312858582, -0.019147014245390892, -0.09110549092292786, -0.03406638652086258, 0.04911360144615173, 0.028718791902065277, 0.06042647361755371, 0.05267828702926636, 0.10549744963645935, 0.09828995913267136, 0.10508027672767639, 0.21297377347946167, 0.15107977390289307, 0.08781516551971436, -0.06280260533094406, -0.012990807183086872, 0.07856157422065735, -0.12240443378686905, -0.11841386556625366, 0.0295087993144989, 0.19419315457344055, 0.11142771691083908, -0.01619908958673477, 0.08091186732053757, 0.03668636083602905, -0.08893978595733643, 0.14072687923908234, 0.009207126684486866, -0.019718438386917114, -0.21008215844631195, 0.12218791246414185, -0.10038519650697708, 0.02250746265053749, 0.04735631123185158, 0.08403736352920532, 0.0726616233587265, 0.09306216239929199, -0.02793407440185547, -0.015481150709092617, -0.09604260325431824, -0.012837564572691917, 0.012797919102013111, 0.09507907927036285, -0.013001899234950542, 0.14338098466396332, -0.08805826306343079, -0.0381837859749794, 0.12717796862125397, -0.02501259557902813, 0.03574386239051819, 0.11957471817731857, 0.03440013527870178, -0.09277324378490448, -0.04545004293322563, -0.09202638268470764, -0.05080747976899147, 0.06628891825675964, 0.06995471566915512, -0.10925354808568954, 0.0981631651520729, -0.15667620301246643, -0.13325269520282745, -0.09002198278903961, -0.027598557993769646, 0.08197316527366638, 0.06533950567245483, -0.07798898220062256, -0.0058765416033566, 0.07021539658308029, 0.006527303718030453, 0.06691934913396835, 0.13941305875778198, -0.07526407390832901, 0.04418002441525459, -0.026082664728164673, 0.18257752060890198, -0.1039794459939003, -0.012734787538647652, 0.026009568944573402, 0.11753538995981216, 0.12024933844804764, 0.022415919229388237, -0.00998595915734768, 0.04115381836891174, -0.11733442544937134, -0.028740260750055313, -0.10243705660104752, -0.12254451215267181, 0.044271111488342285, -0.09229078143835068, 0.03014802560210228, -0.12507842481136322, -0.02630460262298584, 0.08367317169904709, -0.049502383917570114, 0.09204074740409851, -0.006083362270146608, 0.10598719120025635, -0.12731757760047913, -0.08726537227630615, -0.07855725288391113, 0.012281322851777077, 0.005752831697463989, -0.09304919838905334, -0.059973180294036865, -0.027617456391453743, 0.10740479826927185, 0.10633692145347595, 0.015997694805264473, 0.05860614776611328, -0.01678892970085144, -0.056530848145484924, 0.07579437643289566, 0.029120514169335365, -0.06150779500603676, 0.01905466616153717, -0.06221859157085419, -0.04180517420172691, 0.05002203583717346, 0.09428536146879196, -0.10405469685792923, 0.045784253627061844, -0.16273562610149384, 0.08293087780475616, -0.06307796388864517, 0.09355428069829941], [-0.029088161885738373, 0.06638845056295395, 0.16656216979026794, 0.14941322803497314, 0.14858604967594147, 0.1396639347076416, 0.07923147082328796, -0.03797169029712677, 0.14331026375293732, 0.0723629891872406, 0.10388010740280151, 0.13990865647792816, 0.12628300487995148, 0.11397819966077805, 0.108003631234169, 0.07556552439928055, 0.07486721873283386, 0.0635548010468483, 0.06323391199111938, 0.07495394349098206, 0.09309892356395721, 0.05301859974861145, 0.06165881082415581, 0.013538052327930927, 0.04807315394282341, 0.03916850686073303, -0.0032639424316585064, -0.0727771520614624, 0.20157387852668762, -0.014762123115360737, -0.01076239813119173, -0.1565561145544052, 0.1488804668188095, -0.23803114891052246, 0.06546836346387863, 0.061134859919548035, -0.0600060299038887, 0.11905685067176819, 0.02288919873535633, -0.03972152993083, 0.027980292215943336, -0.05670551210641861, -0.15692435204982758, 0.02815636806190014, 0.06262402981519699, 0.22048203647136688, -0.015245199203491211, -0.08262932300567627, -0.2281816452741623, -0.06738881021738052, -0.0964042916893959, -0.006021926645189524, 0.0364176370203495, 0.12003582715988159, 0.10925102978944778, 0.17802050709724426, -0.11633861064910889, -0.0364193432033062, -0.07700273394584656, -0.0023913006298244, 0.07589596509933472, -0.054657310247421265, -0.006094838492572308, -0.2860363721847534, -0.03740379586815834, 0.0738660991191864, -0.04786347970366478, -0.07324197888374329, -0.01461049634963274, 0.05582008883357048, 0.2375563532114029, -0.007019290700554848, 0.06127756088972092, 0.038857556879520416, 0.1386917233467102, -0.12724147737026215, 0.07856111228466034, 0.25222307443618774, 0.05941181629896164, 0.05198885500431061, -0.042811788618564606, 0.058551035821437836, 0.18792128562927246, -0.1475331336259842, 0.08720920234918594, 0.04743505269289017, -0.07251384854316711, -0.16612589359283447, -0.08081357181072235, 0.07657013833522797, 0.0634491890668869, 0.08713259547948837, -0.13675768673419952, -0.06220366433262825, -0.0584133006632328, -0.054519280791282654, -0.159294992685318, 0.05332750082015991, -0.023365218192338943, 0.04857289418578148, -0.14785152673721313, -0.08583459258079529, 0.08053898066282272, 0.07681172341108322, 0.08394771814346313, -0.07422751188278198, 0.04031110927462578, 0.04654357209801674, -0.007464727386832237, 0.10345131158828735, -0.18403100967407227, -0.09262795001268387, 0.015574284829199314, -0.0186215378344059, 0.09114588052034378, 0.036496832966804504, 0.11620372533798218, -0.06218329817056656, 0.1512136161327362, -0.15734674036502838, -0.08627801388502121, 0.13285699486732483, 0.0037638870999217033, 0.09452309459447861, 0.035428181290626526, -0.026723278686404228, 0.18695704638957977, -0.0016295589739456773], [0.01934531144797802, -0.13541363179683685, 0.1358138471841812, 0.023114176467061043, 0.029894908890128136, 0.04235077276825905, -0.10521316528320312, -0.0863485187292099, 0.20272178947925568, 0.12609536945819855, 0.014053464867174625, -0.09966546297073364, -0.10290564596652985, 0.1400960236787796, 0.0022920346818864346, -0.07812967896461487, 0.04317418858408928, 0.1205655112862587, 0.035431087017059326, -0.037050165235996246, 0.02359224110841751, 0.08116433024406433, 0.05077775940299034, 0.024532770738005638, 0.10629786550998688, 0.027519825845956802, -0.19613750278949738, -0.13188189268112183, 0.14834779500961304, -0.0477043092250824, -0.010733319446444511, -0.13705627620220184, -0.024387119337916374, -0.10505281388759613, 0.07511747628450394, 0.06977666914463043, -0.07660926878452301, 0.10129886120557785, 0.03717498481273651, 0.08659688383340836, 0.034948136657476425, 0.03882312402129173, -0.18997697532176971, -0.08787725865840912, -0.04646853730082512, -0.060486093163490295, -0.08589078485965729, 0.05726202204823494, -0.042245231568813324, 0.07563639432191849, 0.0019127021078020334, -0.09769093990325928, 0.08826620131731033, 0.05452561751008034, 0.12075062841176987, -0.02783788926899433, -0.09913988411426544, -0.07126563787460327, 0.09229163080453873, -0.01643032766878605, -0.00817220751196146, 0.0752565935254097, -0.13355350494384766, -0.18090881407260895, 0.03781568631529808, -0.062220796942710876, -0.08453519642353058, -0.100225068628788, -0.011863128282129765, -0.0965052917599678, 0.0026242814492434263, -0.19677916169166565, -0.08998297899961472, 0.19666875898838043, -0.04145975783467293, -0.05639608949422836, 0.01731099933385849, 0.05065347999334335, 0.002416507573798299, -0.08828345686197281, -0.09540526568889618, 0.18290160596370697, 0.0563114732503891, -0.017227789387106895, 0.08259564638137817, 0.08773472160100937, -0.02489451877772808, -0.26851189136505127, -0.04967932030558586, 0.09190084785223007, 0.0019380311714485288, 0.03580711781978607, -0.08534238487482071, -0.03523072600364685, 0.011201439425349236, 0.15954352915287018, -0.07942893356084824, -0.0852539911866188, -0.14509792625904083, 0.14005683362483978, -0.01510068029165268, 0.02324974536895752, -0.12409038841724396, -0.10515402257442474, -0.06370989978313446, -0.04921847581863403, -0.08755128085613251, 0.10270823538303375, 0.16359339654445648, 0.08930068463087082, -0.014726225286722183, -0.02966616116464138, 0.03514377027750015, -0.04043528437614441, -0.00020533293718472123, 0.14563493430614471, 0.09192416816949844, -0.04088680073618889, 0.004696596413850784, -0.027170153334736824, 0.05423084646463394, 0.12585671246051788, 0.045061226934194565, 0.11984692513942719, 0.2049669623374939, 0.022730736061930656, 0.10321222990751266, -0.1340324431657791], [0.1378161460161209, 0.09949098527431488, 0.07148940116167068, 0.13850471377372742, 0.10662700235843658, -0.13216222822666168, 0.09435179829597473, 0.1294434815645218, 0.047918085008859634, 0.16859373450279236, -0.03749214857816696, 0.1751357465982437, -0.043103042989969254, 0.2505975365638733, -0.05783123895525932, -0.08057977259159088, 0.043888289481401443, 0.03779143840074539, -0.06594747304916382, 0.0749136209487915, 0.11887893825769424, -0.11686486005783081, 0.16952842473983765, -0.06222209706902504, -0.0005979505367577076, 0.012085932306945324, -0.06230317801237106, -0.04493381828069687, -0.017600469291210175, 0.05911906808614731, 0.045883193612098694, 0.04479440301656723, -0.05230215936899185, 0.07342055439949036, -0.11508204787969589, 0.042431265115737915, -0.14312678575515747, 0.021736057475209236, 0.029331479221582413, 0.05821175128221512, 0.03155681490898132, 0.0981510728597641, -0.17900650203227997, -0.05953444913029671, -0.005135436542332172, -0.05597281828522682, 0.013070663437247276, -0.01523526944220066, -0.19712460041046143, 0.1009511724114418, -0.042236533015966415, -0.08267589658498764, -0.05746089294552803, -0.0461127832531929, 0.20720162987709045, 0.16802725195884705, -0.12075679004192352, 0.002354688011109829, -0.14992879331111908, -0.12922964990139008, -0.07238475978374481, 0.14236393570899963, -0.18919293582439423, -0.17927025258541107, -0.04753249138593674, 0.03512127324938774, -0.03233812376856804, -0.0012205351376906037, -0.14653857052326202, 0.0438692606985569, 0.04452265053987503, -0.17860473692417145, -0.00767570361495018, 0.11098074167966843, 0.05856214836239815, -0.13410860300064087, 0.1655198633670807, 0.11620363593101501, 0.1344420462846756, 0.03432341292500496, -0.17964236438274384, 0.19267228245735168, 0.2325005978345871, -0.14485648274421692, -0.005849976558238268, 0.06980901956558228, 0.015291232615709305, -0.18954463303089142, -0.12642627954483032, 0.1018395647406578, 0.1233799010515213, -0.1827242523431778, -0.14586463570594788, -0.0038398487959057093, -0.17777056992053986, 0.043688613921403885, 0.12116901576519012, -0.04518517106771469, -0.009558255784213543, 0.04958593472838402, -0.13485203683376312, 0.036667078733444214, 0.010971425101161003, -0.13835076987743378, 0.09326010942459106, 0.07015302777290344, -0.09768882393836975, -0.0628102645277977, 0.1134868785738945, -0.011130101978778839, 0.007236300501972437, 0.03469587862491608, 0.07680069655179977, -0.022369349375367165, 0.0511220246553421, 0.1476697474718094, 0.03781396523118019, -0.004844871815294027, 0.020058780908584595, -0.05135549604892731, 0.008232837542891502, -0.07436131685972214, -0.042983703315258026, 0.03324080631136894, -0.0343879871070385, 0.02377886325120926, -0.003654283005744219, 0.07271440327167511], [-0.006760518532246351, 0.09225175529718399, 0.17982737720012665, -0.009838760830461979, 0.18250305950641632, -0.1957375407218933, -0.03751421347260475, 0.07279541343450546, 0.17200899124145508, 0.2600950598716736, 0.09581878781318665, 0.05153011158108711, 0.018481800332665443, 0.2003462165594101, -0.056364547461271286, 0.14975640177726746, 0.19724608957767487, 0.38708415627479553, -0.04556986689567566, 0.014088097959756851, 0.2197791039943695, 0.054530657827854156, 0.3431597054004669, -0.0910361111164093, 0.25387948751449585, 0.42292720079421997, -0.002685616258531809, -0.07311751693487167, 0.202558696269989, -0.0713954046368599, -0.07409887760877609, -0.22741197049617767, -0.057633113116025925, -0.011865858919918537, -0.024377373978495598, -0.11376272141933441, -0.040276817977428436, 0.057050637900829315, 0.14837774634361267, 0.16589821875095367, -0.042195361107587814, -0.10988785326480865, -0.16911454498767853, -0.0016973571619018912, -0.06720062345266342, 0.12401231378316879, 0.08688081800937653, 0.10659513622522354, -0.1337490677833557, 0.14201532304286957, 0.008306700736284256, -0.10241430252790451, 0.21126261353492737, 0.11684213578701019, 0.18261297047138214, 0.08724796772003174, -0.029337357729673386, 0.020093129947781563, -0.09627498686313629, -0.002419561380520463, 0.07999879866838455, -0.013933365233242512, -0.17162078619003296, -0.2784503996372223, 0.12971319258213043, 0.0016959678614512086, -0.2604716122150421, 0.0790112316608429, -0.12482776492834091, -0.049966007471084595, -0.03650738671422005, -0.004145180806517601, 0.22609804570674896, 0.29570645093917847, 0.07754958420991898, -0.2633719742298126, 0.23851278424263, 0.2768400013446808, 0.23162490129470825, 0.06650762259960175, -0.0792740136384964, 0.4238729178905487, 0.19817347824573517, -0.04780540615320206, -0.003327041631564498, 0.4260513186454773, -0.14073430001735687, -0.17037330567836761, 0.03143835440278053, -0.09547188133001328, 0.12103287130594254, -0.17644499242305756, -0.16408765316009521, -0.12313735485076904, 0.049759961664676666, 0.11382132768630981, -0.07859814167022705, -0.08857228606939316, 0.003663427196443081, 0.22622714936733246, 0.08110056817531586, -0.10856222361326218, 0.056719619780778885, -0.15406760573387146, 0.03743066266179085, -0.063051737844944, 0.10041610896587372, 0.0936073362827301, 0.0939907655119896, -0.09240564703941345, 0.0018874548841267824, -0.004711686633527279, -0.10171804577112198, -0.008814417757093906, 0.06870933622121811, 0.05748533830046654, 0.039286497980356216, 0.28518202900886536, -0.13747528195381165, -0.16149160265922546, -0.022578177973628044, 0.13890302181243896, -0.16179054975509644, -0.014799368567764759, -0.01890726201236248, 0.08893883973360062, 0.2574319541454315, -0.14738571643829346], [-0.016677742823958397, 0.06407850980758667, 0.005847851280122995, 0.2553020119667053, 0.02164054848253727, 0.0458047091960907, 0.1972033530473709, 0.22671879827976227, 0.21362031996250153, 0.04290305823087692, 0.24276745319366455, 0.28483036160469055, 0.056426502764225006, 0.18246112763881683, 0.006553076673299074, 0.12225591391324997, -0.030746614560484886, 0.13368935883045197, -0.08876946568489075, -0.05280378833413124, 0.21585901081562042, -0.06669965386390686, 0.062288008630275726, -0.012885470874607563, -0.15813378989696503, 0.19657115638256073, 0.07093418389558792, -0.23420123755931854, 0.08981171995401382, 0.010794701054692268, 0.10655062645673752, -0.1968688815832138, 0.15489012002944946, -0.2710177004337311, 0.010486776940524578, -0.061906542629003525, -0.020975831896066666, 0.08739381283521652, -0.027974212542176247, 0.22683276236057281, -0.16833074390888214, 0.03308561444282532, -0.11381372064352036, -0.04559975489974022, 0.02203202061355114, 0.09532523155212402, 0.0003187328402418643, 0.07132412493228912, -0.059291958808898926, 0.2757892310619354, -0.17712198197841644, -0.0770907774567604, 0.24548979103565216, -0.10579372942447662, -0.08911841362714767, -0.04069272056221962, -0.0072583770379424095, 0.22886814177036285, 0.2530241012573242, -0.2633156180381775, -0.06695279479026794, -0.05461614578962326, -0.2987695038318634, -0.24002401530742645, 0.1333913952112198, -0.222343310713768, -0.12763020396232605, 0.03372170776128769, -0.12287799268960953, 0.07106099277734756, 0.11960739642381668, -0.1951454132795334, 0.19274058938026428, -0.15036803483963013, 0.02493285946547985, 0.08895739912986755, 0.18636968731880188, 0.19894470274448395, 0.08973237127065659, -0.1924915760755539, 0.12961648404598236, 0.063031405210495, 0.12765423953533173, 0.08778782188892365, -0.08824250847101212, 0.25039297342300415, 0.054189056158065796, -0.21390953660011292, 0.03009360283613205, 0.07319144159555435, 0.014790094457566738, -0.04047487676143646, -0.18743090331554413, -0.09974978864192963, 0.18728843331336975, 0.025631610304117203, -0.08202895522117615, -0.1586289256811142, 0.011699811555445194, -0.03071417100727558, -0.02869255840778351, -0.08262627571821213, 0.1685009002685547, -0.1405106633901596, 0.16973452270030975, 0.13360118865966797, 0.016719037666916847, 0.10167311877012253, 0.01761031709611416, -0.009009748697280884, 0.011303620412945747, -0.03520142287015915, 0.07898078113794327, -0.0544210709631443, -0.11973027884960175, 0.017910286784172058, -0.17118868231773376, 0.3461049497127533, -0.0634344220161438, 0.0007741117151454091, 0.10054381936788559, 0.32736143469810486, 0.01517216395586729, 0.05215396359562874, 0.026623893529176712, 0.21794071793556213, -0.09411352872848511, 0.03656645119190216], [-0.18747256696224213, 0.0845014750957489, 0.024969104677438736, 0.18862676620483398, -0.2660728394985199, -0.02624652348458767, -0.10439803451299667, -0.04824446886777878, 0.12751832604408264, -0.2088152915239334, 0.181223526597023, 0.29825472831726074, 0.16597171127796173, 0.08384309709072113, 0.16147065162658691, -0.03666067123413086, 0.016134224832057953, 0.14384640753269196, -0.10390618443489075, 0.18148545920848846, 0.1433708369731903, -0.12537243962287903, 0.1656651347875595, -0.02278454788029194, -0.1533709615468979, 0.11421225965023041, -0.023534834384918213, -0.0041721286252141, -0.18855144083499908, -0.03605687990784645, 0.044128865003585815, -0.10632450133562088, 0.11258444935083389, -0.1938316822052002, 0.016191111877560616, 0.2960612177848816, 0.03552327677607536, 0.2822355031967163, -0.1227126270532608, 0.2344372719526291, -0.15656596422195435, 0.07815996557474136, -0.14891010522842407, -0.113536536693573, 0.1758110225200653, -0.018349643796682358, 0.199331596493721, 0.161567822098732, -0.0735587403178215, 0.02514217607676983, 0.14377741515636444, -0.11666950583457947, -0.0562560111284256, 0.010412443429231644, 0.16071051359176636, 0.03728454187512398, -0.1374717354774475, 0.24010039865970612, 0.19822582602500916, -0.12298968434333801, 0.017780674621462822, 0.032249171286821365, -0.09492645412683487, -0.04082806035876274, 0.13137958943843842, -0.1767914593219757, -0.30054622888565063, 0.03259654715657234, -0.1843837946653366, 0.12157229334115982, 0.04552460461854935, -0.24079924821853638, 0.3550005555152893, 0.021577652543783188, 0.0628824457526207, -0.003217084100469947, -0.00046563995420001447, 0.20092646777629852, 0.25986501574516296, -0.09005649387836456, -0.19214262068271637, -0.01858390122652054, 0.1525774449110031, 0.11667053401470184, -0.27756935358047485, 0.2746375799179077, 0.17990684509277344, -0.14495618641376495, -0.10391905158758163, 0.009455974213778973, -0.12588755786418915, 0.03480883687734604, -0.08175298571586609, -0.06418895721435547, -0.02235739678144455, 0.07180680334568024, -0.034121736884117126, -0.22114373743534088, 0.17796996235847473, 0.12408987432718277, 0.02193443290889263, 0.01766287162899971, -0.11310551315546036, 0.09885577112436295, 0.19017459452152252, -0.1023235023021698, 0.04440112039446831, -0.13991354405879974, -0.05978380888700485, -0.07456901669502258, -0.013757424429059029, -0.126588374376297, 0.049011971801519394, 0.04708969220519066, -0.05381930619478226, -0.14053916931152344, -0.21706674993038177, 0.1504088044166565, -0.10993672907352448, -0.018459614366292953, 0.1483142077922821, 0.1563480645418167, -0.08107706159353256, 0.10877467691898346, -0.016327887773513794, 0.28054189682006836, -0.004031970631331205, 0.04650387167930603], [0.09505978971719742, 0.016000261530280113, 0.3126583397388458, 0.10262859612703323, -0.11780251562595367, 0.01692909002304077, 0.03111320361495018, -0.11984753608703613, 0.037790484726428986, 0.26102399826049805, 0.09073459357023239, 0.05371186137199402, 0.07386568188667297, 0.1918574720621109, 0.13407674431800842, -0.02876642532646656, 0.03719706833362579, 0.27420806884765625, 0.10575351119041443, 0.11763941496610641, -0.05693492293357849, -0.10397142171859741, 0.164350226521492, -0.08784152567386627, 0.008933392353355885, 0.24975742399692535, -0.2657743990421295, -0.029533253982663155, 0.11768444627523422, -0.14694392681121826, -0.14794906973838806, 0.038754187524318695, 0.02385595440864563, -0.18151897192001343, -0.09014259278774261, 0.0008815403562039137, -0.004992568399757147, 0.014474805444478989, 0.06472812592983246, -0.015686091035604477, -0.011338729411363602, -0.06155688315629959, -0.024985330179333687, -0.0615968219935894, -0.039566200226545334, -0.0500471331179142, 0.03893840312957764, -0.0801084116101265, -0.13046623766422272, 0.15063245594501495, 0.021262140944600105, -0.07241317629814148, 0.021658044308423996, 0.1460903137922287, 0.11009986698627472, 0.1519080549478531, -0.15541625022888184, 0.12423761188983917, 0.0839276984333992, -0.2769150137901306, 0.011019643396139145, 0.04398207366466522, -0.14192157983779907, -0.21452218294143677, -0.03670112043619156, -0.05994689464569092, -0.2822811007499695, 0.0321202278137207, -0.21319834887981415, -0.21604856848716736, 0.20831695199012756, -0.040282703936100006, 0.2301749885082245, 0.15674783289432526, 0.01918252557516098, -0.15762901306152344, 0.07783977687358856, 0.08423654735088348, 0.20295217633247375, -0.1401648074388504, -0.06152218207716942, 0.20130890607833862, 0.14528952538967133, 0.16638341546058655, -0.09048337489366531, 0.24870368838310242, -0.0597541518509388, -0.18275201320648193, -0.011115431785583496, 0.12038113176822662, -0.10841269791126251, -0.10449333488941193, -0.14572648704051971, -0.0826718658208847, -0.28925564885139465, 0.17330938577651978, -0.03627261146903038, -0.16102288663387299, 0.03095901757478714, 0.1696186363697052, -0.1423341929912567, 0.08978291600942612, -0.08171159029006958, -0.12924644351005554, -0.027547545731067657, 0.13835135102272034, 0.20948626101016998, 0.0773676410317421, -0.004400051198899746, -0.0878535807132721, -0.10301733762025833, -0.08046671748161316, -0.13386237621307373, 0.09540612995624542, 0.11536342650651932, -0.03666830435395241, 0.0014447564026340842, 0.1214531883597374, -0.0375501774251461, -0.2293156534433365, 0.2550729215145111, 0.1486772894859314, -0.04927854612469673, 0.02590375393629074, -0.10110299289226532, 0.07527647912502289, 0.23818689584732056, 0.058449361473321915], [0.1034538671374321, -0.10178374499082565, 0.20907115936279297, 0.1359124779701233, 0.290264755487442, -0.13087676465511322, 0.13436752557754517, -0.27839985489845276, -0.11516276001930237, 0.23754854500293732, 0.16523250937461853, 0.18449373543262482, 0.15803268551826477, 0.26898717880249023, -0.04886860400438309, 0.07279595732688904, 0.037012677639722824, 0.16239988803863525, -0.011284589767456055, -0.11627670377492905, -0.08935648202896118, -0.07204371690750122, 0.10707122832536697, -0.2050805240869522, -0.058639101684093475, 0.07126383483409882, -0.25342899560928345, -0.13408240675926208, 0.2904128432273865, -0.327650249004364, -0.052647631615400314, -0.18920251727104187, 0.12520529329776764, -0.30158936977386475, -0.23909269273281097, -0.0323217436671257, 0.08091631531715393, 0.19910486042499542, 0.05311241373419762, -0.17035767436027527, 0.2740441560745239, 0.011643622070550919, -0.23065130412578583, 0.01784893311560154, 0.0620364211499691, -0.053148023784160614, -0.0436822772026062, -0.04117881506681442, -0.1647316813468933, 0.13754451274871826, -0.18853434920310974, -0.10600979626178741, 0.03659883514046669, -0.08213631808757782, 0.07229658961296082, 0.2367996722459793, -0.3086166977882385, 0.27614468336105347, -0.16766421496868134, -0.02932157926261425, -0.024242164567112923, -0.03856786713004112, -0.22975356876850128, -0.339319109916687, 0.06857240945100784, -0.13118480145931244, -0.1443406343460083, 0.03572938218712807, -0.13936586678028107, 0.039689090102910995, 0.19488409161567688, -0.20476782321929932, 0.08631914854049683, 0.2977083623409271, 0.040568042546510696, -0.12644466757774353, 0.01235930621623993, 0.16845540702342987, 0.33977562189102173, -0.16201654076576233, 0.029572952538728714, 0.27478113770484924, 0.0953492671251297, 0.0843430757522583, 0.2940373420715332, 0.1654481440782547, 0.08148300647735596, -0.3590448200702667, 0.05298205837607384, -0.041493527591228485, 0.00921537447720766, -0.11985272914171219, -0.20549216866493225, -0.08998727053403854, -0.16681942343711853, 0.15969735383987427, -0.12462658435106277, -0.0346345379948616, 0.03616687282919884, 0.1013873815536499, -0.1416093409061432, 0.06002494692802429, 0.14547085762023926, -0.1383642852306366, 0.09755959361791611, 0.06751749664545059, 0.19704343378543854, 0.1127171665430069, 0.05684828758239746, 0.0038190484046936035, -0.015593349933624268, -0.055671125650405884, 0.029574468731880188, -0.1039239689707756, 0.042527396231889725, 0.00285838614217937, -0.08315584063529968, 0.3580777943134308, -0.12367630749940872, -0.13856200873851776, 0.09989828616380692, 0.2985990047454834, -0.07539840787649155, -0.13329026103019714, 0.10723406076431274, -0.06758349388837814, 0.1305401474237442, -0.01842282898724079], [0.016774408519268036, 0.10578352212905884, 0.010448592714965343, 0.08012550324201584, 0.1062423586845398, -0.06937453895807266, -0.022167840972542763, 0.049104757606983185, 0.0372796468436718, 0.22961477935314178, 0.018061945214867592, 0.22749553620815277, 0.09185132384300232, 0.012460741214454174, -0.07677426189184189, 0.11700569093227386, 0.12148367613554001, 0.10246409475803375, 0.07536011934280396, -0.021659506484866142, -0.12162512540817261, -0.11588150262832642, 0.12335563451051712, 0.11270326375961304, 0.1654392033815384, 0.13397562503814697, -0.1485029011964798, -0.11026249080896378, 0.004507306031882763, -0.08851994574069977, -0.06879682838916779, -0.035182248800992966, 0.08101903647184372, -0.06321138888597488, -0.1388029307126999, 0.023468205705285072, -0.18379399180412292, -0.13225169479846954, 0.14457467198371887, -0.06553547829389572, -0.06152701750397682, -0.0802546888589859, 0.015027005225419998, -0.01778772845864296, 0.12038620561361313, 0.19331791996955872, 0.17379602789878845, -0.026834601536393166, -0.08155996352434158, -0.07525890320539474, -0.20620594918727875, -0.07280533760786057, 0.14854352176189423, -0.10361586511135101, 0.0915105938911438, 0.1333765834569931, -0.12962327897548676, 0.2816337049007416, 0.07134189456701279, -0.18493011593818665, -0.04309847578406334, 0.04183301329612732, -0.14757204055786133, -0.24493159353733063, 0.1060079038143158, -0.14601947367191315, -0.056426599621772766, -0.030217157676815987, -0.12388696521520615, -0.051122233271598816, 0.21244990825653076, -0.11263511329889297, 0.19110175967216492, 0.2407800853252411, 0.031551070511341095, 0.023295553401112556, 0.03542378917336464, 0.07693854719400406, 0.11183203756809235, -0.0896415188908577, -0.09698344022035599, 0.016355423256754875, -0.021781563758850098, -0.030094480141997337, 0.0737696960568428, 0.1919630467891693, -0.26037102937698364, -0.18190081417560577, -0.052809108048677444, 0.07537973672151566, -0.19240052998065948, 0.18502295017242432, -0.09064969420433044, -0.05515854060649872, 0.07138089835643768, 0.1259920597076416, -0.06462609022855759, -0.10204991698265076, 0.05050826072692871, -0.006736987270414829, -0.07129036635160446, 0.03384360671043396, 0.07293235510587692, -0.07521579414606094, -0.0470428466796875, 0.02321774512529373, -0.011517046019434929, 0.027489038184285164, 0.021788567304611206, -0.052834898233413696, 0.05816331505775452, 0.017234086990356445, 0.039744917303323746, -0.036451779305934906, 0.04909399896860123, -0.029494790360331535, -0.07785621285438538, 0.022382982075214386, -0.07851901650428772, -0.2549358606338501, 0.024569932371377945, 0.1944519728422165, -0.009901085868477821, -0.10672802478075027, -0.06112133711576462, -0.06768061965703964, -0.08962002396583557, -0.059029728174209595], [-0.015581514686346054, 0.1072649285197258, 0.08159288018941879, 0.14861655235290527, 0.11280380189418793, -0.0190745797008276, 0.11097279191017151, -0.005018661729991436, 0.06163423880934715, 0.11731529235839844, 0.11122050881385803, 0.18997086584568024, 0.01859520748257637, 0.1344839185476303, 0.09811220318078995, 0.0472070574760437, -0.034279562532901764, 0.12605564296245575, 0.004887670278549194, -0.006209284067153931, 0.02130219340324402, -0.06506052613258362, 0.014986967667937279, 0.015903858467936516, 0.22293585538864136, 0.1749809980392456, -0.1250336766242981, 0.04141194745898247, 0.11361802369356155, -0.1253221333026886, -0.07522779703140259, 0.11823787540197372, -0.12244760990142822, -0.0767371878027916, -0.028186112642288208, 0.1658167839050293, -0.13957996666431427, -0.08731262385845184, 0.2559407353401184, -0.11500269174575806, -0.033709846436977386, 0.22203390300273895, -0.08745819330215454, -0.15638963878154755, 0.02670120820403099, -0.03744720295071602, -0.02044844441115856, -0.094585120677948, -0.028676733374595642, 0.14077036082744598, -0.1343836933374405, -0.06129699945449829, 0.03200572729110718, -0.07367098331451416, 0.07502133399248123, -0.12040328979492188, 0.049638714641332626, 0.05264631286263466, 0.02645176649093628, -0.07190783321857452, -0.03517535701394081, -0.160910502076149, -0.0121230473741889, -0.08299189805984497, 0.07339446991682053, 0.06759825348854065, -0.11992155015468597, -0.040162503719329834, -0.05550149828195572, 0.044838253408670425, 0.156675785779953, -0.0895385816693306, 0.050040021538734436, 0.07670661807060242, -0.05507373809814453, 0.009704500436782837, -0.022974461317062378, 0.11993932723999023, -0.10575342178344727, 0.06131397560238838, 0.14315785467624664, -0.10992784053087234, -0.08317270874977112, -0.01634378172457218, 0.04125967249274254, 0.1426248699426651, -0.10517878085374832, -0.04524250328540802, -0.03358202055096626, 0.024188697338104248, -0.040965735912323, 0.16279350221157074, 0.04551560804247856, -0.05365821346640587, 0.08768090605735779, 0.06477021425962448, -0.1531376838684082, 0.006826399359852076, 0.06544998288154602, 0.17939409613609314, -0.04367545247077942, -0.011269330978393555, -0.03333178162574768, -0.025454461574554443, 0.097470223903656, -0.06822705268859863, 0.08424986153841019, 0.10933366417884827, -0.09158679842948914, 0.07431823015213013, 0.05835080146789551, -0.05643001198768616, -0.011304736137390137, -0.06841014325618744, 0.2217799574136734, -0.03296089172363281, -0.10825522989034653, 0.0753551796078682, -0.11208239197731018, -0.09171304851770401, 0.029731184244155884, 0.21685738861560822, -0.08390143513679504, 0.09402820467948914, -0.19223397970199585, 0.14052459597587585, 0.08016465604305267, -0.011488581076264381], [-0.012141108512878418, -0.021311581134796143, 0.09101992845535278, -0.05236414074897766, -0.09982633590698242, 0.10011518001556396, 0.07897394895553589, -0.030775249004364014, 0.12264144420623779, -0.03482559323310852, -0.026237666606903076, -0.10949453711509705, -0.09141254425048828, 0.027585536241531372, -0.02462899684906006, -0.025852233171463013, 0.08874806761741638, -0.06690776348114014, 0.04827338457107544, -0.04066520929336548, -0.01069137454032898, 0.0002105236053466797, -0.10355648398399353, -0.09803396463394165, 0.011377036571502686, -0.0010264813899993896, -0.0501592755317688, -0.10301166772842407, -0.049800097942352295, 0.004783272743225098, -0.05231153964996338, 0.03969427943229675, 0.02876994013786316, 0.10195034742355347, 0.08151191473007202, 0.07362619042396545, -0.1048242449760437, 0.055503010749816895, -0.08248662948608398, 0.08382481336593628, 0.017251521348953247, -0.08398810029029846, -0.12325811386108398, 0.036002129316329956, 0.1229315996170044, 0.030777305364608765, 0.09400919079780579, 0.050990551710128784, -0.08712723851203918, -0.09230411052703857, 0.029222697019577026, -0.03443977236747742, -0.09263667464256287, -0.12361547350883484, -0.029713362455368042, 0.11232736706733704, 0.014199703931808472, 0.04536306858062744, 0.0486522912979126, 0.06826436519622803, -0.10785198211669922, -0.06349989771842957, -0.11203601956367493, 0.02340376377105713, -0.02323564887046814, -0.011746615171432495, 0.0906931459903717, 0.04522433876991272, -0.0010103285312652588, 0.034759193658828735, 0.08419159054756165, -0.10888350009918213, -0.09849023818969727, -0.07639265060424805, -0.0804537832736969, 0.09283974766731262, -0.10684728622436523, 0.040159642696380615, 0.10415586829185486, 0.02557903528213501, 0.034154921770095825, -0.0893239676952362, -0.03407323360443115, -0.01891443133354187, -0.0850134789943695, -0.06473001837730408, -0.016683340072631836, -0.005016356706619263, -0.06156936287879944, 0.08629587292671204, -0.07919874787330627, -0.03759470582008362, -0.013225167989730835, -0.019727617502212524, -0.028703272342681885, -0.12450683116912842, 0.09854725003242493, -0.039362937211990356, 0.01706734299659729, 0.07183995842933655, -0.12274029850959778, 0.04254019260406494, -0.09471389651298523, 0.014213114976882935, -0.10867100954055786, -0.05118006467819214, -0.02261286973953247, -0.11889436841011047, -0.0410807728767395, 0.010204941034317017, -0.12187314033508301, -0.06956619024276733, 0.10595089197158813, 0.10126391053199768, 0.09945893287658691, 0.07788655161857605, -0.06321650743484497, -0.0420268177986145, -0.030961215496063232, -0.06865137815475464, -0.11276155710220337, -0.04813233017921448, -0.05967056751251221, 0.07859823107719421, -0.04466012120246887, 0.10526153445243835, 0.011217236518859863, -0.05072304606437683], [0.05775997042655945, -0.01887071132659912, -0.06676551699638367, 0.05311670899391174, -0.036111414432525635, 0.1204911470413208, 0.10377496480941772, 0.013482809066772461, 0.10481539368629456, -0.04894411563873291, -0.09624451398849487, 0.0948038399219513, -0.059747785329818726, 0.06475597620010376, 0.018428415060043335, 0.11969229578971863, 0.07933369278907776, -0.06548202037811279, -0.094614177942276, 0.012548089027404785, 0.1221226155757904, 0.04539644718170166, -0.05692732334136963, 0.009830504655838013, 0.031056106090545654, -0.11235025525093079, 0.071839839220047, -0.12213331460952759, 0.0721006989479065, -0.01829501986503601, -0.10627853870391846, 0.11894002556800842, 0.011106908321380615, -0.10205462574958801, 0.07311820983886719, 0.08701959252357483, 0.028610408306121826, -0.055240750312805176, 0.09950503706932068, 0.03121882677078247, 0.02849477529525757, -0.007494539022445679, 0.12215515971183777, 0.11129406094551086, 0.0032591819763183594, 0.00803336501121521, 0.03661978244781494, -0.07434988021850586, 0.0675906240940094, 0.10166728496551514, 0.009407371282577515, 0.020786285400390625, -0.10735189914703369, -0.09812700748443604, 0.009629547595977783, -0.01572442054748535, 0.05216977000236511, 0.12108290195465088, 0.02246871590614319, 0.06169089674949646, -0.03737080097198486, 0.07397884130477905, -0.10364755988121033, -0.00389176607131958, 0.05214488506317139, 0.09367677569389343, -0.10891154408454895, -0.014593839645385742, -0.05347764492034912, -0.07525652647018433, 0.11047235131263733, 0.020670771598815918, 0.020237654447555542, 0.09517794847488403, -0.06888779997825623, -0.016009986400604248, 0.09935504198074341, -0.030986249446868896, 0.08784857392311096, -0.031106889247894287, -0.041991591453552246, 0.031020790338516235, -0.07125407457351685, 0.06934145092964172, -0.023994654417037964, -0.06030464172363281, -0.07720759510993958, -0.11277467012405396, 0.00012996792793273926, -0.09991335868835449, -0.013186454772949219, 0.037898242473602295, 0.008994340896606445, -0.012130677700042725, -0.026047319173812866, -0.015954017639160156, 0.09269070625305176, -0.11546745896339417, 0.043953388929367065, -0.10104015469551086, -0.11925026774406433, -0.053273409605026245, 0.09304332733154297, 0.03222578763961792, 0.012428700923919678, 0.05118227005004883, -0.11454039812088013, 0.05314299464225769, -0.08703559637069702, 0.02382075786590576, -0.0464152991771698, -0.04096969962120056, -0.09221404790878296, 0.11504587531089783, 0.08426514267921448, 0.12453463673591614, 0.04779592156410217, 0.08846265077590942, 0.09399151802062988, -0.05915936827659607, -0.08511379361152649, -0.013043135404586792, -0.09265846014022827, -0.035799264907836914, -0.061417728662490845, 0.09924760460853577, -0.11385294795036316, 0.004318922758102417], [-0.08237552642822266, -0.026196420192718506, -0.01934114098548889, 0.10236719250679016, -0.10713997483253479, 0.01600554585456848, -0.056274354457855225, -0.09933078289031982, 0.029407113790512085, -0.05594682693481445, -0.032421886920928955, -0.07501274347305298, 0.06853151321411133, 0.12053865194320679, -0.05212697386741638, 0.04500401020050049, 0.05786105990409851, -0.07587236166000366, 0.025989800691604614, -0.07693201303482056, 0.10613006353378296, 0.10714495182037354, -0.02026471495628357, -0.02772638201713562, -0.07363501191139221, -0.0010027885437011719, 0.0452704131603241, 0.01954743266105652, -0.05091163516044617, -0.08656299114227295, 0.06813791394233704, 0.051847755908966064, 0.057059794664382935, -0.0017821788787841797, 0.0034313201904296875, 0.08174464106559753, -0.023142248392105103, 0.08107012510299683, 0.08935612440109253, 0.03249332308769226, 0.0691031813621521, -0.11823126673698425, -0.027529507875442505, 0.11180156469345093, -0.009490340948104858, 0.04129859805107117, -0.035049259662628174, -0.03194475173950195, -0.06339982151985168, 0.07277891039848328, 0.04456484317779541, -0.07378581166267395, 0.06827163696289062, 0.008659183979034424, 0.11566877365112305, 0.10890671610832214, -0.12043982744216919, 0.027781128883361816, 0.08473798632621765, -0.08915627002716064, -0.061681509017944336, -0.10900455713272095, -0.023738503456115723, -0.1243840754032135, 0.060948342084884644, -0.11175212264060974, -0.03350821137428284, 0.030543595552444458, 0.005801796913146973, 0.08309769630432129, -0.0184670090675354, 0.03991517424583435, -0.0896935760974884, 0.023419708013534546, -0.11342886090278625, -0.041434913873672485, 0.0849810540676117, -0.002959609031677246, -0.06647607684135437, 0.07627996802330017, -0.01703566312789917, 0.08003917336463928, -0.03807878494262695, -0.04553264379501343, 0.06099596619606018, -0.08134886622428894, 0.06974896788597107, -0.10289150476455688, 0.06505575776100159, 0.1215757429599762, 0.10560402274131775, -0.09445953369140625, 0.06462153792381287, -0.11459705233573914, -0.023236840963363647, 0.09581807255744934, 0.06853115558624268, -0.004605382680892944, 0.045229971408843994, 0.07089874148368835, 0.0988517701625824, 0.060622602701187134, -0.016217440366744995, 0.021276026964187622, 0.02298259735107422, -0.08638405799865723, 0.026071161031723022, -0.002853870391845703, 0.08393844962120056, 0.01844388246536255, -0.06453266739845276, -0.01882961392402649, 0.013754218816757202, 0.07129758596420288, 0.10726937651634216, 0.012391090393066406, -0.015579134225845337, -0.0736238956451416, 0.06489604711532593, 0.029931187629699707, 0.05440059304237366, 0.09051057696342468, 0.029655396938323975, 0.018929600715637207, 0.0790615975856781, 0.07497063279151917, -0.05219590663909912, -0.07543817162513733], [0.004899483174085617, -0.022383905947208405, 0.10608229786157608, -0.0428486131131649, -0.04919495806097984, -0.03045155294239521, -0.12429609894752502, -0.10308737307786942, 0.11799827218055725, 0.002768747741356492, 0.065525121986866, 0.08581358939409256, 0.10957694798707962, 0.12411993741989136, 0.07255639135837555, -0.08802852779626846, -0.04927085340023041, 0.01603293977677822, 0.01936948299407959, 0.1094491258263588, 0.05358613654971123, 0.10719560831785202, 0.029175899922847748, -0.02507336065173149, 0.030972396954894066, 0.15345723927021027, -0.11874289810657501, 0.08654729276895523, -0.016760878264904022, 0.05166231095790863, 0.06321606040000916, -0.06725233793258667, 0.05970396474003792, 0.02059366926550865, 0.09216507524251938, -0.09049183130264282, -0.019837636500597, 0.08952514827251434, 0.09729746729135513, 0.2092074602842331, -0.0058403718285262585, 0.013593745417892933, -0.08872344344854355, -0.11150836944580078, 0.0331130251288414, -0.11962827295064926, -0.020513981580734253, 0.015836603939533234, -0.0267737228423357, 0.06546895951032639, 0.14210814237594604, -0.059159908443689346, 0.002695047063753009, 0.07950703799724579, 0.09874830394983292, 0.05814564600586891, 0.105014868080616, 0.06867185980081558, -0.09370413422584534, 0.07193434983491898, 0.05623286962509155, 0.05579018220305443, -0.213880717754364, -0.08252644538879395, 0.013240453787147999, 0.07490834593772888, -0.23519587516784668, 0.07001376897096634, -0.09575468301773071, 0.10326429456472397, 0.0632314682006836, -0.0038967577274888754, 0.12222032248973846, -0.046799417585134506, 0.08722522854804993, 0.12088923901319504, -0.03956009820103645, -0.005269405897706747, 0.11195008456707001, -0.016551652923226357, -0.05830419436097145, -0.05653512477874756, 0.2456132471561432, -0.03220990672707558, 0.1484040915966034, 0.13027900457382202, -0.10831619799137115, 0.1124938353896141, -0.06554125994443893, -0.014028457924723625, 0.046801771968603134, -0.18518848717212677, -0.0706464946269989, -0.1046045571565628, -0.05068221688270569, 0.013539781793951988, -0.09452220797538757, -0.038619861006736755, 0.08560610562562943, 0.023437658324837685, 0.012876233085989952, -0.039750836789608, 0.010173287242650986, 0.04613996297121048, -0.004269373137503862, -0.07135921716690063, 0.12618237733840942, -0.11512593179941177, -0.03963736817240715, -0.025673985481262207, 0.053205251693725586, 0.11240482330322266, 0.1136099249124527, -0.02242952585220337, 0.08129004389047623, 0.09601317346096039, 0.007278381381183863, 0.06588611751794815, 0.015834089368581772, 0.04754747077822685, -0.07069403678178787, 0.15079304575920105, 0.06674695014953613, -0.07995516061782837, -0.11865580081939697, 0.06793702393770218, 0.15203291177749634, 0.06154801324009895], [-0.16390708088874817, -0.09298150986433029, 0.18139533698558807, 0.015751676633954048, 0.22120913863182068, 0.08629729598760605, -0.07251263409852982, 0.07073872536420822, 0.03988734632730484, 0.2021050900220871, 0.2193780243396759, 0.024993298575282097, 0.19085010886192322, 0.288303941488266, 0.10820681601762772, 0.028789140284061432, 0.18479250371456146, 0.22254250943660736, 0.124539814889431, 0.12341292202472687, -0.06994915753602982, -0.10074640810489655, 0.016750972718000412, -0.011147236451506615, 0.0421818383038044, 0.07164199650287628, -0.0927293449640274, -0.011297961696982384, 0.09211309254169464, -0.09040015935897827, 0.011526698246598244, 0.07796692848205566, 0.08091697096824646, -0.1955961138010025, -0.11304958164691925, 0.02407628484070301, -0.020798103883862495, 0.014552914537489414, 0.23088325560092926, 0.047237593680620193, -0.052329547703266144, 0.1506943553686142, -0.1401258409023285, -0.1652558594942093, 0.18826882541179657, 0.019682904705405235, -0.0017955336952582002, -0.14182043075561523, -0.10091745108366013, 0.05281564220786095, -0.043335240334272385, -0.13445289433002472, 0.07487709820270538, 0.16183622181415558, 0.04733829200267792, 0.24422363936901093, 0.010771103203296661, 0.0027246347162872553, 0.08025763183832169, -0.12314948439598083, -0.04237853363156319, -0.01785019412636757, -0.28710341453552246, -0.029725132510066032, 0.04171939566731453, -0.025628279894590378, -0.13881352543830872, -0.08814609050750732, -0.0830700471997261, 0.09868185222148895, 0.11646851897239685, -0.06513404846191406, 0.2232072949409485, 0.19852398335933685, -0.030234023928642273, 0.059179335832595825, -0.05981289595365524, 0.1923857182264328, 0.21645738184452057, -0.018265608698129654, -0.02015833929181099, -0.11144250631332397, 0.20713460445404053, -0.09720781445503235, 0.11684486269950867, 0.08631173521280289, -0.09887256473302841, -0.023732613772153854, -0.07889202982187271, -0.08332613855600357, 0.05047327280044556, -0.14719003438949585, 0.012442445382475853, -0.11773915588855743, 0.028094910085201263, 0.14013956487178802, -0.019583048298954964, -0.07349969446659088, -0.010562670417129993, -0.0106546925380826, 0.07642510533332825, -0.14307917654514313, -0.03335896506905556, 0.05832906439900398, 0.005886363331228495, 0.0615079365670681, 0.074128657579422, -0.13902220129966736, -0.12363884598016739, 0.006612032651901245, -0.054571427404880524, -0.03673456609249115, -0.07680392265319824, 0.0002533368533477187, 0.2704874277114868, 0.24108891189098358, -0.10343721508979797, -0.0323527455329895, -0.058133382350206375, -0.079557403922081, -0.026886137202382088, 0.17160487174987793, -0.0426362045109272, 0.07866809517145157, -0.1163162812590599, 0.040369465947151184, 0.17471598088741302, -0.1150563433766365], [0.07673932611942291, -0.22138001024723053, 0.02639509178698063, 0.06640841066837311, 0.0016708060866221786, 0.17845419049263, -0.12800893187522888, -0.03268968313932419, 0.30878958106040955, 0.06211971491575241, 0.08607452362775803, 0.07959114015102386, 0.14655807614326477, 0.3672153651714325, 0.15476049482822418, 0.18786339461803436, -0.02398279495537281, -0.028010504320263863, -0.1748637557029724, -0.02151014655828476, -0.014543182216584682, 0.005033554974943399, 0.045744068920612335, 0.1953853815793991, 0.13673396408557892, 0.16063207387924194, -0.31453898549079895, -0.16588112711906433, 0.3045543432235718, -0.2701795697212219, -0.025354821234941483, -0.17175941169261932, -0.020857160910964012, -0.12251853197813034, -0.1051563248038292, -0.01775280572474003, -0.04102380946278572, 0.19811733067035675, 0.34932810068130493, 0.007897438481450081, 0.1729413866996765, 0.07632147520780563, -0.2582319378852844, -0.15777607262134552, 0.108643539249897, 0.06876165419816971, 0.10804535448551178, -0.06727747619152069, 0.04018280655145645, 0.12675021588802338, -0.11140893399715424, -0.0729251280426979, 0.22041253745555878, 0.1208546832203865, 0.23034706711769104, -0.0014050006866455078, -0.2573366165161133, -0.16803792119026184, 0.031080031767487526, -0.12560302019119263, -0.04390323907136917, -0.15509630739688873, -0.18244901299476624, 0.015348808839917183, -0.009699673391878605, -0.0848505049943924, -0.1919885128736496, -0.05201130360364914, -0.18392273783683777, -0.13361576199531555, 0.3960334360599518, -0.23808766901493073, 0.13679541647434235, 0.16712969541549683, -0.002914725337177515, -0.12355870008468628, -0.1193200945854187, 0.2587525546550751, 0.2529193162918091, 0.05585293099284172, -0.058268532156944275, 0.19069749116897583, -0.0525442473590374, -0.039333976805210114, 0.1977490335702896, 0.3653394281864166, -0.11344656348228455, -0.1075630635023117, 0.06307517737150192, 0.24108560383319855, -0.06263870000839233, 0.029018983244895935, -0.05793366581201553, -0.013377772644162178, -0.16189566254615784, 0.10351062566041946, -0.1075611487030983, 0.1128232479095459, 0.15036165714263916, 0.053264070302248, 0.04622623324394226, -0.15061312913894653, 0.11958331614732742, -0.01601128652691841, 0.02322389744222164, 0.06906607747077942, -0.024494264274835587, -0.11360954493284225, 0.08413119614124298, -0.07336673885583878, -0.05324514955282211, -0.09066817164421082, 0.05452568084001541, -0.05967941880226135, 0.2826216518878937, 0.1941145360469818, 0.13299232721328735, 0.10215208679437637, 0.1742735058069229, -0.19597908854484558, 0.029611557722091675, 0.331474632024765, 0.1526547372341156, 0.009872172959148884, 0.11478854715824127, 0.19174250960350037, 0.16308513283729553, -0.1312738060951233], [-0.2022995501756668, -0.09042372554540634, 0.18874599039554596, -0.13489125669002533, 0.06765895336866379, 0.30880260467529297, -0.07904781401157379, 0.017957594245672226, 0.16595406830310822, -0.062391865998506546, -0.10979242622852325, 0.18703827261924744, 0.10155440121889114, 0.18046583235263824, 0.31651771068573, -0.03185644745826721, 0.09658090770244598, -0.02130458503961563, -0.0982547402381897, -0.09116074442863464, -0.0404895581305027, -0.012808814644813538, 0.2026219218969345, 0.18390682339668274, -0.12097763270139694, 0.22331924736499786, -0.1970352828502655, -0.09305086731910706, 0.33453503251075745, -0.46576806902885437, -0.01316649466753006, -0.08958469331264496, 0.06410866230726242, -0.3469770848751068, 0.1913606971502304, 0.20633243024349213, -0.003778114216402173, 0.3586193919181824, 0.609321653842926, 0.09899507462978363, 0.10669957101345062, -0.08155281096696854, -0.10863472521305084, -0.17059080302715302, -0.021468766033649445, -0.014702062122523785, 0.14373862743377686, -0.07403650879859924, 0.03214753046631813, 0.06351612508296967, -0.33302220702171326, -0.3345254957675934, 0.2163316309452057, 0.04539790004491806, 0.3518463671207428, 0.16934777796268463, -0.07636496424674988, -0.0799635648727417, 0.15056605637073517, -0.3726499378681183, -0.09979439526796341, -0.2912135720252991, -0.11769029498100281, -0.21818704903125763, 0.16162420809268951, 0.05786567181348801, -0.31419938802719116, -0.22080740332603455, -0.07328131794929504, -0.13480059802532196, 0.35230588912963867, -0.43698084354400635, 0.26239365339279175, 0.2429904043674469, 0.20112748444080353, 0.06507199257612228, -0.01038286741822958, 0.37163251638412476, 0.1471586972475052, -0.025417236611247063, -0.23049014806747437, 0.08619298040866852, 0.05756562203168869, -0.10247240215539932, 0.15297342836856842, 0.2995273470878601, -0.14185363054275513, -0.019788460806012154, -0.2770705819129944, -0.006052682641893625, -0.27524277567863464, -0.021827545017004013, 0.037082489579916, -0.14638501405715942, 0.09765429049730301, -0.09438003599643707, -0.20295649766921997, -0.11641238629817963, -0.007693596184253693, 0.17384755611419678, -0.09492883086204529, 0.040438760071992874, -0.26554977893829346, -0.16697652637958527, 0.2125963568687439, -0.10966717451810837, -0.038832493126392365, -0.10629969835281372, -0.04392410069704056, 0.016145752742886543, 0.011747833341360092, 0.02423080801963806, 0.18429535627365112, -0.07928173243999481, 0.3279271721839905, 0.18716633319854736, 0.021581711247563362, -0.2012225091457367, 0.14243221282958984, -0.11346691101789474, -0.08405793458223343, 0.39742517471313477, 0.16439485549926758, 0.061178214848041534, -0.029859086498618126, 0.1616847664117813, 0.14298534393310547, -0.0027041637804359198], [0.030109941959381104, -0.09278655052185059, 0.21422338485717773, 0.033317044377326965, -0.06873943656682968, 0.22207193076610565, 0.0023824074305593967, -0.2305450141429901, 0.11610548198223114, -0.0997847467660904, -0.2536852955818176, 0.01890677586197853, 0.0243770070374012, 0.06885793805122375, 0.3799159824848175, 0.03455452620983124, 0.035184502601623535, 0.04064903035759926, -0.18213696777820587, -0.2580026686191559, -0.19784700870513916, -0.06442476809024811, 0.41233155131340027, 0.18359854817390442, 0.009970235638320446, 0.21677570044994354, -0.3465246856212616, -0.05562211200594902, 0.1823514848947525, -0.3199322521686554, 0.12672004103660583, -0.08159051090478897, 0.01657416671514511, -0.29169708490371704, 0.2905431389808655, 0.22930465638637543, -0.09991427510976791, 0.18157370388507843, 0.3919258117675781, -0.14014899730682373, -0.11036929488182068, 0.17421886324882507, -0.12258327752351761, 0.09194812923669815, -0.040727678686380386, -0.09968838840723038, 0.12064466625452042, -0.05457281693816185, -0.10182501375675201, -0.20253892242908478, -0.08448469638824463, -0.16290900111198425, 0.04113169386982918, -0.14525270462036133, 0.5276628732681274, 0.15951324999332428, -0.14641855657100677, -0.11257337033748627, -0.07230938225984573, -0.5106258988380432, -0.25952112674713135, -0.3318054974079132, 0.1775888204574585, -0.29804369807243347, 0.14380520582199097, -0.13860566914081573, -0.20023857057094574, -0.10334058851003647, -0.33616840839385986, 0.03647874295711517, 0.31365567445755005, -0.2649693191051483, 0.41722673177719116, 0.06299735605716705, -0.009405015036463737, -0.10693381726741791, 0.1991475224494934, 0.20490466058254242, 0.07702402025461197, -0.1274399757385254, -0.0791810154914856, -0.05878215655684471, -0.3003464937210083, 0.2745629847049713, 0.352698415517807, 0.29874446988105774, -0.3394602835178375, 0.08345521986484528, -0.46496710181236267, 0.008426891639828682, -0.47745785117149353, -0.04993410408496857, -0.018463648855686188, 0.06665375828742981, -0.0377853661775589, -0.08641497045755386, -0.18235918879508972, -0.013835092075169086, -0.0879223421216011, 0.3657110929489136, -0.034036774188280106, -0.12683404982089996, -0.2429874688386917, -0.23337142169475555, 0.3039053678512573, 0.029938949272036552, -0.2581033408641815, -0.0995212197303772, -0.0046925172209739685, 0.03287658840417862, 0.06483076512813568, -0.06045125797390938, 0.18999479711055756, -0.18124911189079285, 0.4693988859653473, 0.3730272650718689, -0.13841450214385986, -0.2374618500471115, 0.1266395002603531, -0.34452101588249207, 0.20325133204460144, 0.3530583083629608, 0.1787201315164566, 0.02605121023952961, -0.021429145708680153, 0.17619426548480988, -0.024746110662817955, -0.17469128966331482], [0.17314641177654266, 0.04288740083575249, 0.20890794694423676, -0.2259962409734726, 0.12598781287670135, 0.12291305512189865, -0.09393635392189026, -0.10609345138072968, 0.13065768778324127, 0.34802114963531494, 0.21278174221515656, 0.24509921669960022, -0.10896262526512146, 0.44945091009140015, 0.17844541370868683, -0.025911761447787285, 0.1672709882259369, 0.08289609104394913, -0.30011770129203796, -0.14809617400169373, -0.2995681166648865, -0.20819081366062164, 0.3994743824005127, -0.03662117198109627, 0.06537652015686035, 0.024700896814465523, -0.3726866841316223, -0.13244634866714478, 0.20522832870483398, -0.03702733665704727, 0.1536121964454651, -0.15665924549102783, -0.17151226103305817, -0.3676443099975586, 0.25336018204689026, -0.020261576399207115, -0.030903935432434082, 0.21890029311180115, 0.3684394061565399, 0.049762241542339325, 0.015431118197739124, -0.024232901632785797, -0.07489342242479324, 0.2997485101222992, 0.020104002207517624, 0.009065684862434864, 0.10640638321638107, -0.2297469675540924, -0.030429694801568985, 0.18675337731838226, 0.061976607888936996, -0.06749400496482849, 0.16843058168888092, 0.1638016700744629, 0.26156434416770935, 0.2983837127685547, -0.06789747625589371, -0.08941332995891571, 0.07197505980730057, -0.24719013273715973, -0.08478496223688126, -0.3678133487701416, 0.043520379811525345, -0.28919297456741333, 0.40820759534835815, -0.03653683513402939, -0.357525497674942, -0.011646008118987083, -0.3235348165035248, 0.18374410271644592, 0.37538549304008484, -0.069380983710289, 0.1679222136735916, 0.027510978281497955, 0.28610265254974365, -0.23027682304382324, 0.18342529237270355, 0.19614455103874207, 0.060036495327949524, -0.1892411708831787, -0.004167268052697182, 0.02152988873422146, -0.03189246356487274, 0.17002785205841064, 0.30924755334854126, 0.3016012907028198, -0.2615407407283783, -0.05711284652352333, -0.31302669644355774, 0.046802882105112076, -0.4178849160671234, 0.032159529626369476, -0.05577697604894638, -0.12745214998722076, -0.06564487516880035, -0.020106211304664612, -0.054599277675151825, -0.015233712270855904, -0.006903134752064943, 0.25937509536743164, 0.04950360581278801, 0.027346648275852203, -0.16259051859378815, -0.15507814288139343, 0.13613449037075043, -0.2655119001865387, -0.2045433521270752, -0.025662677362561226, -0.05181622877717018, 0.019893085584044456, 0.09261807054281235, -0.15937837958335876, -0.05763114243745804, -0.351898193359375, 0.3253920376300812, 0.13031169772148132, -0.02439144253730774, -0.06004822999238968, 0.041834618896245956, -0.14771313965320587, 0.007763533852994442, 0.40091514587402344, 0.08534453809261322, -0.24457819759845734, 0.058927878737449646, 0.2613426446914673, -0.03567798063158989, -0.194860577583313], [0.09660618007183075, 0.17655077576637268, 0.14742138981819153, -0.16318607330322266, -0.19953984022140503, -0.059004247188568115, -0.10979995876550674, 0.16272015869617462, 0.05332929641008377, -0.09932415932416916, 0.19962655007839203, 0.2736266255378723, 0.11309009045362473, 0.15797284245491028, 0.233987957239151, -0.04344150424003601, 0.08034024387598038, 0.04772685468196869, 0.033504266291856766, 0.14048030972480774, 0.20146599411964417, -0.1316857933998108, 0.05959601327776909, -0.09875126928091049, -0.0006397154647856951, 0.09566227346658707, -0.4155186414718628, -0.02878768928349018, 0.2114657759666443, -0.4701196849346161, -0.11681436002254486, 0.026748476549983025, -0.13611774146556854, -0.48864924907684326, 0.36162665486335754, 0.05399780720472336, -0.0012689309660345316, 0.06258141249418259, 0.016844768077135086, 0.08145874738693237, -0.13013891875743866, -0.14059565961360931, 0.006601894740015268, 0.1998375803232193, -0.02621733397245407, 0.01004501897841692, 0.1932094693183899, -0.07210128009319305, 0.10340762883424759, 0.2692253291606903, -0.33965563774108887, -0.09700632095336914, 0.2468755692243576, -0.05461622402071953, 0.037834666669368744, 0.4939058721065521, -0.009127053432166576, -0.21973201632499695, 0.030083423480391502, -0.5479538440704346, -0.2925782799720764, -0.30468881130218506, -0.10258547961711884, -0.15487301349639893, 0.44228076934814453, -0.047107163816690445, -0.31508657336235046, -0.02272096462547779, -0.3636302649974823, -0.20541083812713623, 0.05681564658880234, -0.389848917722702, 0.38960355520248413, -0.3250250220298767, 0.17898838222026825, 0.08283717185258865, 0.3954720199108124, 0.055774156004190445, -0.25727319717407227, -0.41025295853614807, -0.15976090729236603, -0.10749517381191254, -0.08743838965892792, -0.08423227816820145, 0.2813359797000885, 0.40914082527160645, -0.4593732953071594, -0.010770712979137897, -0.4219304919242859, -0.05140441656112671, -0.27677032351493835, -0.12028168141841888, -0.3450302183628082, -0.1102478951215744, -0.1373613327741623, 0.13038496673107147, -0.25871211290359497, -0.48052725195884705, 0.2251574993133545, -0.07653729617595673, -0.15123525261878967, 0.02015490084886551, -0.2207222282886505, -0.021403344348073006, 0.13401955366134644, -0.3871236741542816, -0.1661897599697113, 0.0659082904458046, 0.25503864884376526, -0.03182697296142578, 0.11699946224689484, -0.18274345993995667, -0.28358298540115356, -0.40784814953804016, 0.0930984690785408, 0.0931847020983696, -0.17922013998031616, -0.1319797933101654, -0.12057583779096603, -0.19064749777317047, 0.15631984174251556, 0.42558053135871887, -0.21773305535316467, -0.2489934116601944, 0.01529706921428442, 0.30538007616996765, -0.2742729187011719, -0.18504419922828674], [0.13863171637058258, -0.01065733004361391, 0.10980464518070221, -0.2821196913719177, 0.05590902268886566, -0.3150045573711395, 0.16612619161605835, 0.07999511808156967, 0.12946294248104095, 0.01084752008318901, 0.2522960305213928, 0.2732798755168915, 0.017089631408452988, 0.47683554887771606, 0.009413303807377815, 0.012495201081037521, 0.1257595717906952, 0.3222014009952545, 0.26440319418907166, 0.00773589825257659, 0.18339510262012482, -0.3828892707824707, 0.08432202786207199, 0.2344629317522049, 0.15593743324279785, 0.21380561590194702, -0.30810073018074036, 0.007771926466375589, 0.2437448352575302, -0.40362128615379333, 0.09111238270998001, -0.32515949010849, -0.15019725263118744, -0.34729108214378357, 0.31326204538345337, 0.0644141435623169, -0.12846830487251282, 0.04689178615808487, -0.14252714812755585, 0.22772695124149323, 0.02281884476542473, -0.039436761289834976, 0.06637907773256302, 0.13934147357940674, -0.050285808742046356, 0.14451858401298523, 0.05454784631729126, -0.09356154501438141, -0.11363507062196732, -0.031201373785734177, -0.2721356451511383, -0.1984105408191681, 0.07857911288738251, -0.18759474158287048, 0.09350191801786423, 0.1566552072763443, -0.16268865764141083, 0.1416773945093155, 0.04461093991994858, -0.4139266610145569, 0.06695373356342316, -0.4333004057407379, -0.0667337104678154, 0.09596030414104462, 0.26418331265449524, -0.03132339194417, -0.44761180877685547, -0.229510098695755, -0.08676064014434814, -0.22763267159461975, 0.3033265173435211, -0.4514937102794647, 0.24745677411556244, 0.045099832117557526, 0.03258007764816284, 0.12469855695962906, -0.04426885396242142, -0.02760242111980915, -0.2603425085544586, -0.41425782442092896, -0.1207432970404625, 0.059825774282217026, -0.22941845655441284, -0.16550181806087494, 0.48795926570892334, 0.1951841413974762, -0.5418135523796082, 0.01185698714107275, -0.19989365339279175, -0.19705937802791595, -0.11656330525875092, -0.10956349968910217, -0.37187811732292175, -0.33304286003112793, -0.07519534230232239, 0.2736291289329529, 0.056814126670360565, -0.31521230936050415, 0.19545258581638336, 0.11369197815656662, -0.14739403128623962, -0.0516466461122036, 0.1632443070411682, -0.1506602168083191, -0.14963342249393463, -0.4300161600112915, -0.2644096612930298, 0.26762160658836365, -0.09888055175542831, -0.1569322943687439, 0.0035955002531409264, -0.06880182772874832, -0.31183913350105286, -0.1981484293937683, 0.19171158969402313, 0.04733625426888466, 0.060157034546136856, 0.12068451195955276, 0.10879898816347122, 0.0037386303301900625, 0.013017846271395683, 0.40159907937049866, -0.4267455041408539, -0.1544349491596222, -0.10664323717355728, 0.19029435515403748, 0.0204584039747715, -0.24554023146629333], [-0.08558059483766556, -0.015383566729724407, 0.2806362211704254, 0.12589767575263977, 0.16547654569149017, -0.0620528981089592, 0.2011037915945053, -0.05690198019146919, -0.20856621861457825, 0.09937997162342072, 0.48857176303863525, 0.4130990505218506, 0.19281941652297974, 0.26866278052330017, -0.11719971895217896, 0.058929622173309326, 0.3103925287723541, 0.07231249660253525, 0.2723284363746643, 0.13764935731887817, 0.1847541332244873, -0.20361283421516418, -0.008486825972795486, 0.25413087010383606, -0.10298007726669312, 0.12279637157917023, -0.22525019943714142, 0.12427058070898056, 0.11030939221382141, -0.22161529958248138, 0.029874587431550026, -0.2504536211490631, -0.17067831754684448, -0.1580662876367569, 0.14012548327445984, 0.158366397023201, -0.027109436690807343, 0.0057248990051448345, -0.3000301718711853, 0.22517211735248566, 0.030817437916994095, -0.030538512393832207, 0.058447547256946564, 0.12202698737382889, 0.10835148394107819, 0.014963040128350258, -0.10137320309877396, 0.050645340234041214, -0.2613833546638489, -0.022011520341038704, -0.3224857449531555, -0.016402442008256912, 0.1335241049528122, -0.18994243443012238, -0.1339065283536911, -0.009774228557944298, 0.043195683509111404, 0.1467418074607849, 0.08629928529262543, -0.09983151406049728, 0.16102762520313263, -0.13124103844165802, -0.1038580983877182, 0.09808030724525452, 0.18926537036895752, -0.12844181060791016, -0.1897711455821991, 0.01812583953142166, 0.03628615289926529, -0.1815522164106369, 0.08953425288200378, -0.13685764372348785, 0.17055875062942505, 0.05816379562020302, -0.016055289655923843, 0.05153987184166908, -0.17768719792366028, -0.047838494181632996, 0.050858303904533386, -0.3527333736419678, 0.02545887976884842, 0.10859496146440506, -0.237000972032547, 0.013595749624073505, 0.2510746419429779, 0.15132348239421844, -0.22748111188411713, 0.16628284752368927, -0.12023232132196426, -0.11966875940561295, -0.08663669973611832, -0.21377049386501312, -0.04169551655650139, -0.21065561473369598, -0.052755970507860184, 0.2697717249393463, -0.20856080949306488, -0.29423853754997253, 0.04956824332475662, 0.17925629019737244, -0.3264463543891907, -0.14549511671066284, 0.14487935602664948, 0.023959344252943993, -0.017203960567712784, -0.31820163130760193, 0.04655054211616516, 0.4624719023704529, -0.22552551329135895, -0.04905448108911514, -0.27740541100502014, -0.20287539064884186, -0.3592950403690338, -0.27099859714508057, 0.1280224621295929, -0.018789971247315407, -0.137508824467659, 0.06219205632805824, -0.16595982015132904, 0.11327958106994629, 0.06285926699638367, 0.08352641761302948, -0.1501486897468567, -0.20549561083316803, -0.08991950005292892, -0.040567077696323395, -0.06452156603336334, 0.12063740938901901], [-0.30291593074798584, -0.05537905544042587, 0.29849281907081604, 0.09940705448389053, 0.12161309272050858, 0.0073829470202326775, 0.09071424603462219, -0.08542260527610779, -0.18992410600185394, 0.1757299154996872, 0.42683467268943787, 0.5118892788887024, 0.06504249572753906, 0.09613640606403351, 0.055950094014406204, 0.015894189476966858, 0.4184930622577667, 0.2477540224790573, 0.13423070311546326, -0.004474889487028122, 0.2223731428384781, -0.1931847631931305, 0.17368629574775696, 0.20393750071525574, -0.15161268413066864, 0.14659711718559265, 0.05390529707074165, 0.011257778853178024, 0.2818487584590912, -0.25326210260391235, -0.1687289923429489, -0.4125820994377136, 0.16903790831565857, -0.12791047990322113, -0.11049269139766693, 0.07985184341669083, 0.18989717960357666, 0.0988272950053215, -0.03149385750293732, 0.06380098313093185, 0.03465995565056801, -0.023616455495357513, -0.09288885444402695, 0.041028715670108795, -0.22190548479557037, 0.012853031046688557, -0.21552321314811707, -0.003498225938528776, -0.041166048496961594, 0.18137127161026, -0.23531034588813782, 0.14154104888439178, 0.265516072511673, -0.2197231501340866, 0.082471564412117, 0.03766212984919548, -0.14485621452331543, 0.004077678546309471, 0.16916213929653168, 0.2981117069721222, -0.023893363773822784, -0.14929232001304626, -0.27799224853515625, 0.15653301775455475, -0.0029971713665872812, -0.10380074381828308, 0.08536864817142487, 0.040419720113277435, 0.08580649644136429, -0.24077722430229187, 0.20084033906459808, 0.06674236804246902, -0.014781203120946884, 0.2803018093109131, 0.10844869166612625, -0.1837805211544037, -0.07741913199424744, -0.026928968727588654, 0.1838291585445404, 0.0220806784927845, 0.3703632652759552, 0.10552170872688293, -0.10853303968906403, -0.28918275237083435, 0.22494621574878693, 0.03157050535082817, -0.08506140112876892, -0.0699542909860611, 0.19665779173374176, 0.03382211923599243, 0.09242156147956848, -0.2872360646724701, 0.059121664613485336, 0.03860533609986305, 0.02198011241853237, 0.23771877586841583, -0.13107889890670776, 0.05683554708957672, -0.03804042190313339, -0.012594291940331459, -0.08250794559717178, -0.05289449170231819, 0.28730669617652893, -0.018191881477832794, 0.13152478635311127, -0.215693861246109, 0.3835281431674957, 0.45218557119369507, 0.14359639585018158, 0.06039482727646828, -0.09644243121147156, -0.17249880731105804, -0.18051749467849731, -0.05539055913686752, 0.047063518315553665, -0.01572149246931076, -0.0632319450378418, -0.08771824836730957, -0.0045455885119736195, 0.08915358036756516, 0.07704915851354599, 0.1915326565504074, -0.05089448019862175, -0.3445507884025574, -0.18860284984111786, -0.15327848494052887, -0.014125317335128784, -0.13704684376716614], [0.09425479173660278, -0.05748771131038666, 0.03354848921298981, 0.06340833008289337, 0.4660811722278595, -0.00027078489074483514, -0.13390235602855682, -0.24355864524841309, -0.2684573829174042, 0.2071218490600586, 0.40987902879714966, 0.4062601327896118, 0.036537136882543564, 0.1773688942193985, 0.07564588636159897, 0.040467631071805954, 0.2076052874326706, 0.19552716612815857, 0.26298853754997253, 0.015787627547979355, 0.18517717719078064, -0.16253185272216797, -0.014803750440478325, 0.18993496894836426, -0.23440638184547424, 0.11455878615379333, -0.2558479607105255, -0.14074957370758057, 0.17168579995632172, -0.3737592101097107, -0.34844541549682617, -0.2175358235836029, 0.03605613112449646, -0.11019708216190338, -0.09356370568275452, -0.0656936913728714, -0.027946116402745247, -2.8283257051953115e-06, 0.17895671725273132, -0.03570762649178505, 0.2420046031475067, -0.28855833411216736, -0.04970907047390938, -0.024218635633587837, -0.10851161926984787, 0.2294827401638031, -0.4063464105129242, 0.1277490109205246, -0.141525536775589, 0.043265730142593384, -0.26957857608795166, -0.029224755242466927, 0.4564410448074341, -0.1928810328245163, -0.117780402302742, 0.01597241498529911, -0.5074173212051392, 0.08739787340164185, 0.2279171347618103, 0.05625585466623306, -0.09159144014120102, -0.4144895076751709, -0.19376705586910248, 0.006276026833802462, -0.19925878942012787, 0.26213380694389343, 0.002291281707584858, -0.09004932641983032, -0.10525999218225479, -0.22469525039196014, 0.19420424103736877, -0.2565422058105469, -0.16304679214954376, 0.30204224586486816, 0.377778559923172, 0.09513426572084427, -0.29415056109428406, -0.015529081225395203, 0.10704075545072556, -0.42501580715179443, 0.20206265151500702, 0.1245407685637474, 0.05122609809041023, -0.24435795843601227, 0.15375305712223053, 0.026826422661542892, 0.06679972261190414, -0.03390001878142357, 0.13047780096530914, -0.06505335867404938, 0.034060437232255936, -0.1827675998210907, -0.44577696919441223, -0.2086622416973114, -0.23622877895832062, 0.07053627073764801, -0.11647405475378036, 0.3694399297237396, 0.02091125026345253, 0.08180678635835648, -0.04173640161752701, -0.07656324654817581, 0.15221956372261047, 0.03383682668209076, -0.2151762694120407, 0.25388485193252563, 0.3373737633228302, 0.30738213658332825, -0.036140281707048416, -0.041036009788513184, -0.09791095554828644, -0.11017360538244247, -0.1330321729183197, 0.14406374096870422, 0.1039133071899414, -0.09906648844480515, 0.042449112981557846, 0.015255775302648544, -0.07321037352085114, -0.18081161379814148, -0.004061573650687933, 0.24153906106948853, 0.002929489128291607, -0.12401285022497177, -0.11901971697807312, -0.21839074790477753, -0.194252148270607, -0.35096243023872375], [0.25018784403800964, -0.05960695818066597, 0.2770451009273529, 0.036031823605298996, 0.3450319468975067, -0.036375127732753754, -0.07340281456708908, 0.0853477492928505, -0.15316098928451538, 0.24896422028541565, 0.17210280895233154, 0.1402871012687683, -0.10399484634399414, 0.20185479521751404, 0.120334193110466, -0.04559381678700447, 0.43040910363197327, 0.05511428043246269, 0.14287087321281433, -0.01959056407213211, 0.002350053982809186, -0.057824715971946716, 0.2740703821182251, 0.3108808696269989, -0.08291232585906982, 0.02025819942355156, -0.162418931722641, 0.21530787646770477, 0.07947777956724167, -0.27620482444763184, -0.39009132981300354, -0.21346820890903473, 0.06647135317325592, -0.04117533937096596, -0.1111331582069397, -0.053967151790857315, -0.36357104778289795, 0.338579922914505, 0.4554915130138397, -0.3109811246395111, 0.049200668931007385, -0.16084066033363342, -0.06260029226541519, 0.005108686164021492, 0.27531394362449646, 0.11848845332860947, -0.15449851751327515, -0.10382023453712463, -0.15136460959911346, -0.04333079606294632, -0.11238314211368561, -0.05621618032455444, 0.1304928958415985, -0.1650463193655014, 0.36950623989105225, 0.0686173215508461, -0.42906874418258667, 0.09064731746912003, -0.13579949736595154, -0.011157582513988018, -0.025182267650961876, -0.10181939601898193, -0.04844771325588226, -0.1540120542049408, -0.16056512296199799, 0.028476795181632042, -0.09364563971757889, -0.10777893662452698, -0.12822629511356354, -0.0549965426325798, 0.32043492794036865, -0.3097315728664398, 0.2301592379808426, 0.2798430621623993, 0.24459786713123322, -0.10403362661600113, -0.4031834602355957, 0.3476475477218628, 0.2663089632987976, -0.23717157542705536, -0.1303597241640091, 0.20771099627017975, -0.07144757360219955, -0.3301253616809845, 0.08779231458902359, -0.17461644113063812, 0.037354957312345505, -0.39562898874282837, 0.011249393224716187, 0.09416180104017258, -0.28293877840042114, 0.02496294677257538, -0.2822226881980896, -0.1759912222623825, -0.4530954658985138, 0.2539226710796356, 0.002486412413418293, 0.3157906234264374, -0.10324344784021378, 0.2976401448249817, -0.16060569882392883, -0.1490071564912796, -0.020102940499782562, 0.10771957784891129, -0.118431955575943, -0.05770748108625412, 0.3492058515548706, -0.05380169302225113, -0.14005708694458008, 0.08974621444940567, -0.3279304802417755, -0.0974515825510025, -0.2987561523914337, 0.04788913205265999, 0.16291950643062592, 0.37613189220428467, 0.31547147035598755, 0.09264737367630005, -0.2412775605916977, -0.026986034587025642, 0.10839097946882248, 0.11417118459939957, -0.0600011982023716, -0.1967257410287857, 0.03221048787236214, -0.04898330196738243, 0.0782083198428154, -0.11949902027845383], [-0.027066577225923538, 0.0915699377655983, 0.06602194905281067, -0.04430278763175011, 0.3058101534843445, -0.06332669407129288, -0.05324721336364746, 0.06828638911247253, -0.23482677340507507, 0.14960531890392303, 0.05117705836892128, 0.01749427616596222, 0.06957303732633591, 0.22233112156391144, 0.12171058356761932, 0.09650882333517075, 0.3291926980018616, 0.37372326850891113, -0.08573558181524277, -0.15544478595256805, 0.0075690411031246185, -0.06587561964988708, 0.2592925727367401, -0.14503860473632812, -0.042200326919555664, -0.14000220596790314, -0.0899987518787384, 0.1535567045211792, 0.03409159556031227, -0.3163641095161438, -0.026288772001862526, -0.002448892220854759, 0.006230541039258242, -0.19978098571300507, -0.24157990515232086, -0.03968493640422821, -0.1661951243877411, 0.13946601748466492, 0.18999601900577545, -0.1970866173505783, -0.051530621945858, 0.04628268629312515, -0.16081386804580688, -0.07416606694459915, 0.24258138239383698, 0.07982282340526581, -0.07270179688930511, 0.21060697734355927, -0.01631159521639347, -0.021843157708644867, -0.23991240561008453, -0.039054129272699356, 0.16500961780548096, -0.06331053376197815, 0.19534093141555786, 0.04744266718626022, -0.17754316329956055, 0.06873786449432373, -0.09690715372562408, -0.17538028955459595, 0.048933759331703186, -0.05867500603199005, -0.3874742388725281, -0.40470263361930847, -0.16820988059043884, -0.010806707665324211, -0.24033263325691223, -0.0361313559114933, -0.26312220096588135, 0.21406136453151703, 0.3088129758834839, -0.2428702712059021, 0.3094974458217621, 0.3907308578491211, 0.1830727607011795, -0.01849343813955784, -0.20416711270809174, 0.4872516095638275, 0.19823554158210754, 0.07129381597042084, -0.08985238522291183, 0.33844342827796936, -0.10687118023633957, -0.07042637467384338, 0.3016069233417511, -0.01031095627695322, 0.028490543365478516, -0.26084402203559875, -0.05434536188840866, 0.1600954234600067, -0.04911355301737785, 0.07675423473119736, -0.13995420932769775, 0.06079923361539841, -0.46966251730918884, 0.37530791759490967, 0.0665205717086792, -0.16352322697639465, -0.02748587541282177, 0.351741224527359, -0.09733730554580688, -0.17120887339115143, 0.1688455045223236, 0.044876668602228165, -0.07136048376560211, -0.16289933025836945, 0.19480587542057037, -0.22136488556861877, 0.04484497010707855, -0.024519378319382668, 0.061613764613866806, 0.08899695426225662, 0.06676821410655975, 0.011825131252408028, 0.17781753838062286, 0.36477839946746826, -0.06208465248346329, 0.17254728078842163, -0.07525290548801422, -0.03049599379301071, 0.11013270169496536, 0.2734706699848175, -0.13739442825317383, -0.11449764668941498, -0.08832923322916031, -0.1309305876493454, 0.22922882437705994, -0.20376421511173248], [0.1208307296037674, 0.16745330393314362, 0.015242679044604301, -0.012256183661520481, 0.04570988565683365, -0.015819700434803963, 0.018873760476708412, -0.03814897686243057, 0.08325622975826263, 0.2270081490278244, 0.11673169583082199, 0.24075832962989807, 0.12643244862556458, -0.09143338352441788, 0.1347552388906479, 0.1907915323972702, -0.003657854860648513, 0.013908309862017632, 0.06767835468053818, -0.026702316477894783, 0.005003164988011122, -0.058568648993968964, 0.09365495294332504, 0.082955002784729, 0.14898738265037537, 0.06958771497011185, -0.17958256602287292, 0.10566805303096771, 0.12813858687877655, -0.14488868415355682, -0.24422545731067657, 0.04396839067339897, 0.03187400475144386, 0.05000416934490204, 0.1957572102546692, -0.04504489153623581, -0.16098327934741974, 0.04376475140452385, 0.1456572562456131, -0.0490463450551033, 0.0075472258031368256, 0.1847820281982422, -0.13996848464012146, -0.05977896228432655, 0.21143676340579987, 0.15709666907787323, -0.051137443631887436, 0.1027868241071701, 0.10353434085845947, -0.06119189411401749, -0.05257092043757439, -0.023952443152666092, 0.27129819989204407, -0.00821806862950325, 0.006110338028520346, -0.02412523329257965, -0.0759018212556839, -0.08350841701030731, -0.09849314391613007, 0.017575150355696678, 0.061538100242614746, -0.13025502860546112, 0.08724430948495865, -0.199232816696167, 0.009814320132136345, -0.010184257291257381, -0.13297902047634125, -0.02970050647854805, -0.016895785927772522, -0.025599587708711624, -0.01896444335579872, -0.1572338193655014, -0.0836917906999588, 0.12187881767749786, 0.07720186561346054, 0.04262551665306091, -0.07543018460273743, 0.06953252106904984, 0.1412901133298874, -0.14009298384189606, -0.10900814086198807, 0.0004942913074046373, -0.027963943779468536, -0.018466778099536896, 0.15779423713684082, -0.16786672174930573, 0.12269867956638336, 0.16645333170890808, -0.03259769827127457, 0.13202588260173798, -0.0054373969323933125, 0.01330687664449215, -0.08153180032968521, 0.04826173186302185, -0.20228832960128784, 0.12767183780670166, 0.11623785644769669, -0.03735354170203209, -0.086191326379776, 0.10022411495447159, -0.005440713372081518, 0.052351854741573334, -0.03723836690187454, -0.04430627450346947, 0.02778293564915657, -0.12254416942596436, -0.14613351225852966, 0.07981325685977936, 0.04222657158970833, -0.11617500334978104, -0.10622062534093857, 0.018616637215018272, 0.12013126909732819, 0.06674513965845108, 0.09480110555887222, -0.07215800136327744, 0.12459602952003479, -0.03560525178909302, -0.07260672748088837, 0.12766973674297333, -0.09743067622184753, 0.16429638862609863, -0.12872742116451263, -0.014869928359985352, -0.09977126121520996, -0.029535697773098946, 0.034713588654994965, -0.07570315152406693], [-0.053879283368587494, 0.18723933398723602, 0.1733437478542328, -0.030123228207230568, 0.12371939420700073, -0.10521237552165985, -0.07941216230392456, 0.10330386459827423, -0.1122947633266449, 0.12943248450756073, -0.06750702857971191, 0.14541399478912354, 0.114143967628479, -0.022492632269859314, 0.060624055564403534, 0.094025157392025, 0.016460169106721878, 0.07059358805418015, 0.03579353913664818, 0.17208607494831085, 0.031113117933273315, -0.060620903968811035, -0.0998852476477623, -0.02333625592291355, -0.023947961628437042, 0.11008533835411072, -0.11864496767520905, -0.032819103449583054, 0.11243972182273865, 0.016604581847786903, -0.11217247694730759, -0.09470026195049286, 0.010505061596632004, 0.023385386914014816, 0.17490562796592712, 0.10261590778827667, -0.03678511828184128, -0.14498688280582428, 0.12600260972976685, -0.07011490315198898, 0.15563592314720154, -0.02908659353852272, 0.025026768445968628, 0.07411131262779236, -0.0552888922393322, 0.11286133527755737, -0.14807932078838348, -0.08356331288814545, 0.018069207668304443, -0.03448871523141861, 0.09734388440847397, -0.03242633864283562, 0.04464499279856682, 0.025565825402736664, -0.08193344622850418, -0.1169540286064148, -0.19311349093914032, -0.06356997787952423, -0.16284209489822388, 0.12172554433345795, 0.03485900163650513, -0.12833619117736816, 0.041209034621715546, 0.061958860605955124, -0.07867086678743362, 0.0626610741019249, -0.02215203456580639, -0.08169081062078476, 0.030074313282966614, -0.017229881137609482, 0.052108824253082275, 0.10201513767242432, -0.034950170665979385, 0.20686377584934235, -0.05444125458598137, -0.0309432540088892, -0.07336273789405823, 0.06456564366817474, -0.05114268884062767, -0.18810497224330902, -0.24716931581497192, -0.21584148705005646, -0.08479668200016022, 0.04924922063946724, 0.014470765367150307, 0.046613067388534546, 0.01772257685661316, 0.10602914541959763, 0.01215724740177393, 0.2036718875169754, -0.05981852114200592, 0.02375653386116028, -0.11649668961763382, 0.015542200766503811, -0.07003271579742432, -0.013672737404704094, 0.01177921798080206, -0.06497938185930252, -0.05053940415382385, 0.09681015461683273, 0.009076664224267006, 0.13903523981571198, 0.15680378675460815, -0.046226054430007935, -0.05197224020957947, -0.07047410309314728, -0.25233903527259827, 0.17399811744689941, -0.05482902005314827, 0.04223686456680298, -0.006423085927963257, 0.012465327978134155, -0.07246184349060059, -0.10945001989603043, 0.2186756581068039, 0.04108463600277901, -0.023796267807483673, -0.09173542261123657, -0.09947846084833145, 0.17125259339809418, -0.06252879649400711, 0.14270822703838348, -0.021941274404525757, 0.056178897619247437, 0.06297314912080765, -0.03944586217403412, -0.03151145949959755, 0.08281904458999634], [0.05827179551124573, -0.010230437852442265, 0.06239122152328491, 0.027407914400100708, 0.09955719113349915, 0.0002948343753814697, 0.030115246772766113, -0.09695848822593689, 0.0494767427444458, 0.11403799057006836, 0.012789084576070309, 0.047745101153850555, 0.053872521966695786, -0.005197949707508087, 0.12116046994924545, 0.11866819858551025, -0.054687321186065674, -0.09097567200660706, 0.014860854484140873, -0.06047143042087555, -2.922586463682819e-05, 0.11856123805046082, 0.10656783729791641, 0.12075323611497879, -0.08836519718170166, -0.07811553031206131, -0.042654186487197876, -0.07289277017116547, 0.06770973652601242, 0.1049731969833374, 0.11640867590904236, -0.0049291253089904785, 0.0166628360748291, 0.008850246667861938, -0.03039221465587616, -0.0788838118314743, 0.0442415252327919, 0.10719513893127441, -0.09944064170122147, 0.12070119380950928, -0.01863977313041687, 0.04791867733001709, 0.021385565400123596, -0.04676297307014465, -0.06043565273284912, -0.05234218016266823, 0.06497464329004288, 0.07132367789745331, 0.11728090792894363, 0.11714067310094833, 0.11918365955352783, 0.039949048310518265, -0.004672795534133911, -0.09514141082763672, -0.0067949858494102955, 0.06136009097099304, 0.1403227001428604, 0.027126342058181763, -0.04541509598493576, 0.010249893181025982, 0.08980974555015564, -0.023792756721377373, -0.10992026329040527, 0.05411913990974426, 0.07263348251581192, 0.08130628615617752, 0.04279312491416931, -0.08661110699176788, 0.028045475482940674, -0.021372564136981964, 0.06649598479270935, -0.0030107498168945312, 0.009965300559997559, 0.10665836185216904, 0.04778588190674782, 0.04355919361114502, -0.11703991889953613, 0.06968166679143906, 0.036173056811094284, 0.018964797258377075, -0.03388591855764389, -0.07478111982345581, 0.09468042850494385, 0.1047268807888031, 0.02274901419878006, -0.10765290260314941, 0.004978775978088379, -0.12173934280872345, 0.0965801253914833, 0.056344423443078995, 0.013694792985916138, 0.02903863787651062, -0.043753691017627716, -0.00224867626093328, -0.08692654222249985, 0.057954031974077225, -0.10767310857772827, 0.04805314540863037, 0.06018712744116783, -0.012049287557601929, -0.04240116849541664, 0.056217074394226074, 0.07155468314886093, -0.03167019784450531, -0.07638484239578247, -0.124839186668396, -0.010549575090408325, 0.07358549535274506, -0.12064287066459656, 0.04104679822921753, 0.008528666570782661, -0.015270233154296875, 0.09351789206266403, -0.0589207224547863, 0.018769502639770508, 0.024319717660546303, 0.026157289743423462, 0.02176082134246826, 0.005012017674744129, 0.009422003291547298, -0.042589858174324036, -0.045674242079257965, -0.07088081538677216, 0.11115564405918121, 0.07468336820602417, -0.03720517084002495, -0.04077265411615372, 0.05906382575631142], [-0.10065329074859619, 0.08801641315221786, 0.05792977660894394, -0.0207431148737669, -0.016540756449103355, 0.026987392455339432, -0.11489975452423096, -0.13810664415359497, -0.11380547285079956, 0.02125662937760353, 0.1497151404619217, 0.23996789753437042, 0.06351379305124283, -0.10849358886480331, 0.1122744083404541, 0.01622108928859234, -0.15266656875610352, -0.00946208368986845, -0.0015463388990610838, 0.10520323365926743, 0.022066008299589157, 0.09026214480400085, -0.008341819047927856, 0.05026659369468689, -0.1235114187002182, -0.06454075872898102, 0.10956920683383942, 0.24432875216007233, 0.015171661041676998, -0.10553301870822906, -0.20538537204265594, 0.20552697777748108, 0.05920632183551788, -0.20018906891345978, 0.016747528687119484, -0.06886948645114899, 0.13200564682483673, -0.11139117181301117, -0.22318632900714874, 0.004370798356831074, -0.07633620500564575, -0.07387694716453552, -0.005938285030424595, -0.005739435087889433, -0.0767672061920166, -0.018275130540132523, 0.10977260023355484, 0.027707334607839584, 0.11621090024709702, 0.26950329542160034, 0.17642685770988464, -0.026639634743332863, 0.01654461957514286, 0.015150626190006733, 0.034736886620521545, 0.016919448971748352, 0.12320291996002197, -0.043251704424619675, 0.30604058504104614, 0.03791913017630577, -0.03518262878060341, 0.12768618762493134, -0.1576072722673416, -0.02582457847893238, -0.10808847844600677, 0.2567192316055298, -0.11290662735700607, 0.08381874859333038, 0.04447069391608238, 0.193638414144516, -0.09818784147500992, -0.10236618667840958, 0.0898505300283432, 0.07015296071767807, 0.22303690016269684, 0.051297057420015335, -0.12846019864082336, -0.0750453993678093, 0.10322891175746918, -0.10872332751750946, -0.07453203946352005, -0.073121078312397, 0.20913274586200714, -0.16346561908721924, 0.039889708161354065, -0.03705047443509102, -0.1541658490896225, -0.04197407886385918, 0.07631276547908783, 0.20582139492034912, 0.13663706183433533, 0.039131131023168564, 0.07901531457901001, -0.16034987568855286, -0.03360331803560257, -0.08084819465875626, -0.06155722215771675, 0.017210612073540688, 0.05893777310848236, -0.058878343552351, 0.01679300144314766, 0.03551927208900452, -0.015796951949596405, 0.06260865926742554, -0.06348012387752533, -0.13715404272079468, -0.18121688067913055, 0.032997943460941315, -0.013972372747957706, -0.03363260626792908, 0.26692527532577515, 0.0015310943126678467, 0.06656476110219955, 0.28154534101486206, -0.16194693744182587, -0.051814042031764984, -0.01801340840756893, -0.15352006256580353, -0.11427852511405945, 0.18364037573337555, 0.28875496983528137, 0.049573417752981186, 0.1942194700241089, 0.14850105345249176, 0.055811695754528046, 0.012135357595980167, -0.10585203021764755, 0.09558083862066269], [0.08583389222621918, -0.13877026736736298, -0.0945538580417633, 0.06501685827970505, -0.10314656794071198, 0.04419771581888199, -0.18533825874328613, -0.07330728322267532, -0.08895093947649002, 0.011074194684624672, 0.05777641013264656, 0.2830231189727783, 0.09949850291013718, -0.15358151495456696, 0.13406844437122345, 0.11076860874891281, -0.23631128668785095, -0.12555921077728271, 0.15903949737548828, -0.10255230963230133, -0.10775832831859589, -0.009610624983906746, 0.18764232099056244, 0.11066092550754547, 0.031983304768800735, -0.008337870240211487, -0.08172904700040817, 0.20720437169075012, -0.12590770423412323, -0.1826777458190918, -0.0724782794713974, 0.3000675141811371, -0.046624381095170975, -0.16200050711631775, -0.15212059020996094, -0.08890224993228912, -0.1570121943950653, -0.058889634907245636, 0.06701518595218658, 0.1541055291891098, 0.2031300961971283, -0.1396850347518921, -0.13425149023532867, -0.02583755925297737, -0.09093134850263596, -0.12712781131267548, 0.0914921909570694, -0.015272466465830803, 0.00018092870595864952, 0.19559790194034576, 0.06990025192499161, -0.14521680772304535, 0.2711677551269531, -0.07359334826469421, 0.11022127419710159, 0.09514108300209045, -0.19243223965168, 0.24793864786624908, 0.24090613424777985, -0.04651815444231033, -0.03491177037358284, -0.04783233627676964, -0.032268330454826355, -0.13457055389881134, -0.09697562456130981, -0.07198076695203781, -0.1961451917886734, -0.046918533742427826, -0.0934133306145668, 0.1539936363697052, 0.3288905918598175, -0.21148079633712769, 0.08466456085443497, 0.1813780963420868, 0.2612732946872711, 0.15941718220710754, -0.1061106026172638, -0.09868065267801285, 0.15154385566711426, -0.0965428277850151, -0.0015916768461465836, -0.16961079835891724, 0.11015822738409042, -0.11270107328891754, 0.3280273973941803, 0.07497896999120712, -0.17687255144119263, 0.04742047190666199, -0.013017267920076847, 0.30737337470054626, 0.1420489400625229, 0.13417142629623413, -0.1938692182302475, 0.14218862354755402, -0.14070020616054535, -0.05939823016524315, -0.041055817157030106, 0.08239497244358063, -0.11757400631904602, -0.11418810486793518, 0.2406342327594757, -0.05033110827207565, 0.009245749562978745, 0.17801059782505035, -0.053126610815525055, -0.12449413537979126, -0.1582685112953186, -0.1811472773551941, -0.12125413119792938, -0.06060254946351051, 0.11435714364051819, 0.019653992727398872, 0.11946867406368256, 0.24322272837162018, 0.2709212601184845, 0.22522921860218048, -0.12830869853496552, 0.05904082581400871, -0.1486150324344635, -0.10162698477506638, 0.12432879954576492, 0.195044606924057, 0.12564076483249664, 0.1836273968219757, -0.12428083270788193, 0.03301195800304413, 0.16878777742385864, 0.17889857292175293], [-0.06301546096801758, -0.0993422418832779, -0.23077811300754547, 0.049306225031614304, -0.08063314855098724, 0.053027670830488205, -0.06576469540596008, 0.11140698939561844, 0.07301565259695053, -0.2042096108198166, -0.27865809202194214, 0.07086735218763351, -0.008126311004161835, 0.07419400662183762, -0.027732692658901215, -0.23708508908748627, -0.27339017391204834, -0.22073327004909515, 0.08456060290336609, -0.18595443665981293, -0.16305117309093475, 0.13191403448581696, -0.020757349207997322, 0.10721727460622787, -0.12898315489292145, -0.23670411109924316, -0.06723866611719131, -0.1720997393131256, 0.021058339625597, -0.14084428548812866, -0.12718316912651062, 0.2716919481754303, -0.12118487060070038, -0.015441580675542355, -0.14893929660320282, 0.17761217057704926, -0.11060834676027298, -0.1051083356142044, 0.2847279906272888, -0.13486023247241974, -0.11143606156110764, 0.10405184328556061, 0.086138516664505, -0.25148165225982666, -0.18337029218673706, 0.11638591438531876, 0.1439470797777176, -0.10228504985570908, 0.09328476339578629, 0.252015620470047, -0.05563388764858246, -0.15201710164546967, -0.05296233296394348, 0.10145885497331619, 0.016253650188446045, 0.1950080245733261, -0.10019783675670624, -0.09734195470809937, -0.060392241925001144, -0.21188929677009583, -0.20982776582241058, -0.12676142156124115, 0.018560947850346565, -0.02837265282869339, 0.19607152044773102, 0.14225222170352936, -0.2226785123348236, 0.0423414520919323, 0.176564022898674, -0.008145563304424286, 0.3677821159362793, -0.23714272677898407, -0.09637738764286041, -0.1785873919725418, -0.16991682350635529, 0.18786664307117462, 0.1462552845478058, 0.10460217297077179, -0.032726939767599106, -0.08734070509672165, -0.04218379035592079, -0.029421335086226463, 0.017393846064805984, -0.1858670562505722, 0.38366031646728516, 0.29041385650634766, -0.3217915892601013, -0.07252616435289383, -0.06359972059726715, 0.018446117639541626, -0.21380864083766937, 0.0796627551317215, 0.053067151457071304, 0.08880674093961716, -0.11169307678937912, -0.10794441401958466, 0.009042405523359776, 0.007789122872054577, 0.03455260023474693, 0.04244887828826904, 0.29426613450050354, -0.032737139612436295, -0.05397026240825653, 0.14125557243824005, 0.11806934326887131, -0.08750917762517929, -0.04896099120378494, 0.031630706042051315, -0.009693294763565063, -0.1615353375673294, 0.18824543058872223, -0.043565988540649414, -0.0396604984998703, -0.08745846897363663, 0.26404210925102234, -0.05752786993980408, 0.12930212914943695, -0.1280771791934967, -0.03350457176566124, -0.11777275055646896, 0.024930017068982124, 0.42037373781204224, 0.3333439230918884, 0.06995408982038498, 0.07248576730489731, -0.09311926364898682, 0.0896095260977745, -0.04214842617511749], [-0.19675351679325104, -0.06497582048177719, -0.22087007761001587, 0.008456659503281116, -0.10044272243976593, 0.021661527454853058, -0.06294044107198715, -0.08099766075611115, 0.06564256548881531, -0.2690172493457794, -0.2466561198234558, 0.0038693142123520374, -0.08837159723043442, 0.13565973937511444, -0.010786800645291805, -0.21740660071372986, -0.11391988396644592, -0.3465946614742279, -0.05370466038584709, -0.195947527885437, -0.1282440423965454, 0.07832697033882141, -0.09642395377159119, -0.16981838643550873, -0.11103678494691849, -0.053718604147434235, -0.1483028084039688, -0.10444064438343048, 